<?xml version="1.0"?>
<opencv_storage>
<opencv_ml_svm>
  <format>3</format>
  <svmType>C_SVC</svmType>
  <kernel>
    <type>RBF</type>
    <gamma>1.</gamma></kernel>
  <C>1.</C>
  <term_criteria><epsilon>1.1920928955078125e-07</epsilon>
    <iterations>1000</iterations></term_criteria>
  <var_count>64</var_count>
  <class_count>10</class_count>
  <class_labels type_id="opencv-matrix">
    <rows>10</rows>
    <cols>1</cols>
    <dt>i</dt>
    <data>
      0 1 2 3 4 5 6 7 8 9</data></class_labels>
  <sv_total>421</sv_total>
  <support_vectors>
    <_>
      0. 0. 0. 0. 0. 0. 0. 0. 0. 0. 0. 0. 0. 0. 0. 0. 0. 0. 0. 0. 0. 0.
      0. 0. 0. 0. 0. 0. 0. 0. 0. 0. 0. 0. 0. 0. 0. 0. 0. 0. 0. 0. 0. 0.
      0. 0. 0. 0. 0. 0. 0. 0. 0. 0. 0. 0. 0. 0. 0. 0. 0. 0. 0. 0.</_>
    <_>
      0. 0. 0. 0. 0. 0. 0. 0. 0. 0. 0. 0. 0. 0. 0. 0. 1.66118130e-01
      1.79753825e-01 1.66193917e-01 1.54518872e-01 0. 1.59385498e-04
      1.59385498e-04 0. 0. 0. 0. 0. 0. 0. 0. 0. 3.12809139e-01
      3.12809139e-01 3.12809139e-01 3.12809139e-01 0. 3.89706052e-04
      3.89706052e-04 0. 2.79313244e-04 0. 0. 2.79313244e-04
      1.97014466e-04 0. 0. 1.97014466e-04 2.15641269e-03 0. 0.
      2.15641269e-03 0. 2.42087393e-04 2.42087393e-04 0. 2.53044277e-01
      3.12809139e-01 2.68779457e-01 2.04373375e-01 2.18811154e-01
      2.90205032e-01 2.40632936e-01 1.67838424e-01</_>
    <_>
      9.17981565e-02 3.37394685e-01 3.11460882e-01 4.08557244e-02
      1.98114924e-02 7.05787390e-02 6.00150563e-02 1.03029003e-02 0. 0.
      0. 0. 0. 0. 0. 0. 2.76396334e-01 3.37394685e-01 3.37394685e-01
      1.28190801e-01 3.14670168e-02 9.99203846e-02 9.02367979e-02
      2.40760557e-02 0. 0. 0. 0. 0. 0. 0. 0. 1.63741931e-01
      3.37394685e-01 3.37394685e-01 9.23340768e-02 1.47080701e-02
      5.16336188e-02 5.08091971e-02 1.54251689e-02 0. 0. 0. 0. 0. 0. 0.
      0. 7.48304203e-02 2.75163025e-01 2.68258810e-01 6.27663657e-02
      4.62014368e-03 1.41127100e-02 1.54727641e-02 5.24661131e-03 0. 0.
      0. 0. 0. 0. 0. 0.</_>
    <_>
      4.64476123e-02 9.21702981e-02 9.42375213e-02 4.67695333e-02
      9.80662331e-02 2.72464491e-02 1.46132102e-02 8.62844735e-02
      1.61315188e-01 1.12511367e-01 6.24319836e-02 1.13475636e-01
      1.72766000e-02 1.79918855e-02 9.31140967e-03 9.33858287e-03
      2.47962907e-05 2.24389851e-01 2.24485204e-01 1.18996039e-04
      4.92005982e-02 7.03913644e-02 7.35995397e-02 5.77001311e-02
      3.87395918e-01 3.87395918e-01 3.87395918e-01 3.87395918e-01
      8.91278237e-02 1.20080806e-01 7.68412799e-02 4.79198098e-02
      1.05411978e-04 2.30395287e-01 2.30558634e-01 2.61895359e-04
      4.82999673e-03 6.27288036e-03 7.79952854e-03 8.41397699e-03
      6.66027442e-02 4.82920371e-02 8.25359300e-02 1.10972092e-01
      6.87323883e-03 6.20131567e-03 6.84121624e-03 7.54214358e-03
      1.67520046e-02 9.62830037e-02 9.97344702e-02 1.97564159e-02 0.
      3.42596604e-06 3.42596604e-06 0. 0. 0. 0. 0. 0. 0. 0. 0.</_>
    <_>
      0. 0. 0. 0. 0. 0. 0. 0. 4.43947539e-02 4.50494923e-02
      6.98032081e-02 6.78061023e-02 2.16901869e-01 1.09173290e-01
      2.07217455e-01 3.18275571e-01 0. 0. 0. 0. 0. 0. 0. 0.
      1.20851591e-01 1.04455270e-01 1.84071392e-01 1.91382408e-01
      4.14251149e-01 4.04417038e-01 4.14251149e-01 4.14251149e-01 0. 0.
      0. 0. 0. 0. 0. 0. 8.72565070e-05 1.03049904e-04 1.03049904e-04
      8.72565070e-05 2.78188195e-02 1.85933691e-02 3.78310345e-02
      4.73933369e-02 0. 0. 0. 0. 0. 0. 0. 0. 0. 0. 0. 0. 0. 0. 0. 0.</_>
    <_>
      3.94656584e-02 2.97664683e-05 4.91395367e-05 3.95042747e-02
      1.17084362e-01 4.27952595e-02 4.76338305e-02 1.22994415e-01
      1.69365942e-01 7.27395713e-02 8.99025723e-02 1.89799279e-01
      1.06816784e-01 2.14370023e-02 2.02224106e-02 1.03591509e-01
      4.77887370e-05 0. 0. 4.77887370e-05 9.13896656e-05 0. 0.
      9.13896656e-05 2.81901229e-02 3.41713503e-02 9.98166203e-03
      7.26433285e-03 2.92827249e-01 2.92827249e-01 1.60605162e-01
      1.76505610e-01 1.03661686e-01 1.69939339e-01 1.97715297e-01
      1.34474337e-01 1.94474240e-03 3.39689525e-03 3.34285130e-03
      2.42515700e-03 1.06608465e-01 1.48075044e-01 9.71186906e-02
      6.84898943e-02 2.92827249e-01 2.92827249e-01 2.92827249e-01
      2.82971859e-01 1.52946830e-01 2.44669572e-01 2.15893984e-01
      1.31909549e-01 4.74646455e-03 7.70298950e-03 7.11740879e-03
      5.33039728e-03 3.29418643e-03 3.00375605e-03 3.03534162e-03
      3.94604728e-03 9.61699802e-03 7.42115872e-03 8.47733393e-03
      1.06923087e-02</_>
    <_>
      3.05931211e-01 2.62430638e-01 2.23345071e-01 2.89847583e-01
      5.98331168e-02 8.13409165e-02 1.37466401e-01 1.21542402e-01 0. 0.
      0. 0. 0. 0. 0. 0. 3.05931211e-01 3.05931211e-01 3.05931211e-01
      3.05931211e-01 2.09184170e-01 2.50153661e-01 3.05931211e-01
      2.81443566e-01 0. 0. 0. 0. 0. 0. 0. 0. 8.50139622e-05 0. 0.
      8.50139622e-05 2.82843539e-05 0. 0. 2.82843539e-05 0.
      2.16806093e-05 2.16806093e-05 0. 4.73493105e-03 3.98687646e-03
      3.27127683e-03 3.64115252e-03 0. 0. 0. 0. 0. 0. 0. 0. 0.
      6.74511030e-05 6.74511030e-05 0. 3.14963646e-02 2.59544719e-02
      2.52826326e-02 2.89250668e-02</_>
    <_>
      0. 0. 0. 0. 0. 0. 0. 0. 0. 0. 0. 0. 1.80240953e-03 0. 0.
      1.80240953e-03 0. 0. 0. 0. 0. 0. 0. 0. 0. 3.15964222e-03
      3.15964222e-03 0. 4.46583599e-01 4.46583599e-01 4.46583599e-01
      4.46583599e-01 0. 0. 0. 0. 0. 0. 0. 0. 0. 1.10280397e-03
      1.10280397e-03 0. 1.92893401e-01 2.51829624e-01 2.42153108e-01
      1.96210191e-01 0. 0. 0. 0. 0. 0. 0. 0. 0. 0. 0. 0. 0. 0. 0. 0.</_>
    <_>
      1.86794519e-03 0. 0. 1.86794519e-03 0. 0. 0. 0. 0. 0. 0. 0. 0. 0.
      0. 0. 3.59498948e-01 3.59498948e-01 3.59498948e-01 3.59498948e-01
      0. 2.68847286e-03 2.68847286e-03 0. 0. 0. 0. 0. 0. 0. 0. 0.
      3.59498948e-01 3.43474358e-01 3.20895612e-01 3.59498948e-01 0.
      8.25727882e-04 8.25727882e-04 0. 0. 0. 0. 0. 0. 0. 0. 0. 0. 0. 0.
      0. 0. 0. 0. 0. 0. 0. 0. 0. 0. 0. 0. 0.</_>
    <_>
      0. 0. 0. 0. 0. 0. 0. 0. 1.02395741e-02 5.52597940e-02
      6.37501106e-02 1.78313442e-02 4.53113206e-02 3.40035617e-01
      3.41451824e-01 1.01211905e-01 0. 0. 0. 0. 0. 0. 0. 0.
      1.72253251e-02 7.39138648e-02 8.26628506e-02 2.96621695e-02
      1.24075711e-01 3.41451824e-01 3.41451824e-01 2.74344474e-01 0. 0.
      0. 0. 0. 0. 0. 0. 8.15884117e-03 3.27559412e-02 3.45901810e-02
      1.05049405e-02 6.62105903e-02 3.41451824e-01 3.41451824e-01
      2.28229702e-01 0. 0. 0. 0. 0. 0. 0. 0. 1.55259296e-03
      2.93808128e-03 3.38468212e-03 2.24522967e-03 2.69473400e-02
      2.26236418e-01 2.47193500e-01 4.56848778e-02</_>
    <_>
      0. 0. 0. 0. 0. 0. 0. 0. 0. 3.04865913e-04 3.04865913e-04 0.
      4.98595715e-01 4.98595715e-01 4.98595715e-01 4.98595715e-01 0. 0.
      0. 0. 0. 0. 0. 0. 0. 0. 0. 0. 1.77382175e-02 0. 0. 1.77382175e-02
      0. 0. 0. 0. 0. 0. 0. 0. 0. 0. 0. 0. 0. 0. 0. 0. 0. 0. 0. 0. 0. 0.
      0. 0. 0. 0. 0. 0. 0. 0. 0. 0.</_>
    <_>
      0. 0. 0. 0. 0. 0. 0. 0. 0. 9.93149515e-05 9.93149515e-05 0.
      3.01771816e-02 3.56258214e-01 3.56258214e-01 6.99339882e-02 0. 0.
      0. 0. 0. 0. 0. 0. 0. 2.47791817e-04 2.47791817e-04 0.
      2.98973266e-02 3.56258214e-01 3.56258214e-01 7.04189390e-02 0. 0.
      0. 0. 0. 0. 0. 0. 0. 2.54474638e-04 2.54474638e-04 0.
      1.10637688e-04 3.56258214e-01 3.56258214e-01 8.05219825e-05 0. 0.
      0. 0. 0. 0. 0. 0. 0. 1.99117436e-04 1.99117436e-04 0.
      3.27195115e-02 3.23597878e-01 3.39686841e-01 4.57520522e-02</_>
    <_>
      1.63982540e-01 1.16158321e-01 1.97694227e-01 2.46363908e-01
      1.53956994e-01 1.17350101e-01 2.73451209e-01 2.73451209e-01 0.
      6.57935816e-05 6.57935816e-05 0. 0. 0. 0. 0. 4.33319993e-02
      3.48655544e-02 4.39537019e-02 5.19037209e-02 4.02062237e-02
      3.66776623e-02 6.54719099e-02 6.67293146e-02 0. 2.80777676e-05
      2.80777676e-05 0. 0. 0. 0. 0. 1.00393705e-02 7.72657758e-03
      1.31367929e-02 1.63334385e-02 2.63167053e-01 9.83796194e-02
      1.99312449e-01 2.73451209e-01 1.03030264e-01 5.87255992e-02
      6.56904653e-02 1.08787455e-01 0. 3.90355781e-05 3.90355781e-05 0.
      1.57988947e-02 1.35278217e-02 2.48301961e-02 2.83903480e-02
      2.73451209e-01 2.05936864e-01 2.73451209e-01 2.73451209e-01
      2.29696035e-01 1.40327707e-01 1.56891078e-01 2.46478811e-01 0.
      8.58878193e-05 8.58878193e-05 0.</_>
    <_>
      0. 0. 0. 0. 0. 0. 0. 0. 0. 0. 0. 0. 0. 0. 0. 0. 0. 0. 0. 0. 0. 0.
      0. 0. 0. 0. 0. 0. 0. 0. 0. 0. 0. 0. 0. 0. 2.59986962e-03 0. 0.
      2.59986962e-03 1.18197431e-03 0. 0. 1.18197431e-03 6.31291550e-05
      0. 0. 6.31291550e-05 0. 1.04689461e-04 1.04689461e-04 0.
      1.97458595e-01 2.86098182e-01 3.80241871e-01 3.80241871e-01
      3.80241871e-01 3.80241871e-01 3.80241871e-01 3.80241871e-01
      3.04568149e-02 3.77593674e-02 5.70667163e-02 4.72170264e-02</_>
    <_>
      0. 0. 0. 0. 0. 0. 0. 0. 0. 2.65980815e-03 2.65980815e-03 0.
      4.98747110e-01 4.98747110e-01 4.98747110e-01 4.98747110e-01 0. 0.
      0. 0. 0. 0. 0. 0. 0. 0. 0. 0. 2.20861612e-03 0. 0. 2.20861612e-03
      0. 0. 0. 0. 0. 0. 0. 0. 0. 0. 0. 0. 0. 0. 0. 0. 0. 0. 0. 0. 0. 0.
      0. 0. 0. 0. 0. 0. 0. 0. 0. 0.</_>
    <_>
      0. 0. 0. 0. 0. 0. 0. 0. 0. 0. 0. 0. 0. 0. 0. 0. 1.45278216e-04 0.
      0. 1.45278216e-04 1.68758517e-04 0. 0. 1.68758517e-04 0. 0. 0. 0.
      0. 0. 0. 0. 2.74315000e-01 2.22669542e-01 2.74315000e-01
      2.74315000e-01 2.74315000e-01 2.66316652e-01 2.74315000e-01
      2.74315000e-01 0. 2.24358999e-04 2.24358999e-04 0. 0. 0. 0. 0.
      2.15732783e-01 1.51722342e-01 1.85155809e-01 2.50646144e-01
      2.74315000e-01 2.44131386e-01 2.34862328e-01 2.61886179e-01 0.
      1.40870383e-04 1.40870383e-04 0. 0. 0. 0. 0.</_>
    <_>
      0. 0. 0. 0. 0. 1.00437051e-03 1.00437051e-03 0. 4.01367277e-01
      4.01367277e-01 3.77742201e-01 4.01367277e-01 4.01367277e-01
      1.53984427e-01 1.55268982e-01 4.01367277e-01 0. 0. 0. 0. 0. 0. 0.
      0. 6.97025040e-04 0. 0. 6.97025040e-04 1.88633203e-04 0. 0.
      1.88633203e-04 0. 0. 0. 0. 0. 0. 0. 0. 0. 0. 0. 0. 0. 0. 0. 0. 0.
      0. 0. 0. 0. 0. 0. 0. 0. 0. 0. 0. 0. 0. 0. 0.</_>
    <_>
      3.69753549e-03 5.37567725e-03 5.42041566e-03 3.38618667e-03 0.
      2.17653233e-05 2.17653233e-05 0. 0. 0. 0. 0. 0. 0. 0. 0.
      1.63524583e-05 0. 0. 1.63524583e-05 0. 0. 0. 0. 7.66188605e-04 0.
      0. 7.66188605e-04 1.17169216e-03 0. 0. 1.17169216e-03
      4.89816023e-03 3.37288249e-03 2.91420775e-03 4.31934139e-03 0.
      1.46130633e-05 1.46130633e-05 0. 9.85085368e-02 1.41433343e-01
      2.63229132e-01 2.23808229e-01 3.05031776e-01 3.16454440e-01
      3.16454440e-01 3.16454440e-01 2.77662929e-02 6.46324530e-02
      8.39148909e-02 5.14158383e-02 0. 5.00979113e-05 5.00979113e-05 0.
      8.84731263e-02 1.20232031e-01 1.06912337e-01 7.21513778e-02
      3.16454440e-01 3.16454440e-01 3.16454440e-01 3.16454440e-01</_>
    <_>
      2.21902523e-02 2.55282000e-02 1.30842384e-02 9.39935539e-03
      6.50526583e-02 7.89761618e-02 8.12399536e-02 6.58671781e-02
      1.10575166e-02 5.68260252e-03 5.03479876e-03 1.04147978e-02
      1.35888881e-03 1.58976763e-05 3.33426397e-05 1.37880992e-03
      1.68474019e-01 1.64967388e-01 7.75601417e-02 8.09300765e-02
      3.14881802e-01 3.14881802e-01 2.99594611e-01 3.14881802e-01
      3.14881802e-01 1.74310043e-01 1.47748828e-01 3.14881802e-01
      1.82236582e-01 9.51485261e-02 8.61749128e-02 1.67014971e-01
      3.58250700e-02 1.53633133e-02 1.88876018e-02 3.90407890e-02
      2.01333255e-01 2.74327938e-02 1.91278346e-02 1.93256021e-01
      2.04619810e-01 6.10638857e-02 4.15975414e-02 1.84479639e-01
      5.60435355e-02 4.22493964e-02 2.77370531e-02 3.87333892e-02
      2.51466893e-02 0. 0. 2.51466893e-02 6.27412647e-02 0. 0.
      6.27412647e-02 6.44457042e-02 2.12869677e-03 1.76835060e-03
      6.43927902e-02 3.16347741e-02 1.04120951e-02 4.97437874e-03
      2.72617452e-02</_>
    <_>
      4.81188949e-03 1.44036589e-02 1.20176440e-02 2.42689601e-03
      3.21738347e-02 3.93633395e-02 2.14177258e-02 1.49826361e-02
      1.64858927e-03 2.75992788e-03 2.79558031e-03 1.58098701e-03
      9.17689977e-06 0. 0. 9.17689977e-06 9.93947759e-02 1.21191241e-01
      5.77494316e-02 3.52736078e-02 2.71091849e-01 2.71091849e-01
      2.71091849e-01 2.66460091e-01 2.71091849e-01 9.70232487e-02
      7.19863325e-02 2.71091849e-01 1.37503833e-01 5.99614829e-02
      3.08820438e-02 1.09470896e-01 1.06172465e-01 1.09642133e-01
      6.97489530e-02 6.65143505e-02 2.71091849e-01 2.49573231e-01
      1.52441084e-01 2.71091849e-01 2.71091849e-01 1.09698258e-01
      8.09166506e-02 2.71091849e-01 1.59732133e-01 8.53240266e-02
      3.24588791e-02 1.06315024e-01 3.88796465e-03 8.72205198e-03
      8.72350298e-03 3.73749947e-03 7.76236266e-05 2.93128983e-06
      2.93128983e-06 7.76236266e-05 3.22291380e-05 0. 0. 3.22291380e-05
      2.58546916e-05 0. 0. 2.58546916e-05</_>
    <_>
      2.29113991e-03 2.06229463e-02 2.19409913e-02 3.48823727e-03
      1.19686686e-02 8.84213392e-03 1.28531167e-02 1.58898365e-02
      2.47050473e-03 1.61512755e-03 4.54160664e-03 5.40088909e-03 0. 0.
      0. 0. 3.55845392e-02 9.02577117e-02 8.42929110e-02 2.76854523e-02
      2.68096089e-01 2.68096089e-01 2.68096089e-01 2.01267332e-01
      1.40072390e-01 1.01407692e-01 1.81637421e-01 2.16364130e-01
      4.04610261e-02 6.40859595e-03 1.95416044e-02 5.43128438e-02
      5.45505062e-02 1.29705831e-01 1.46937668e-01 6.52147681e-02
      2.68096089e-01 2.58449078e-01 2.29399472e-01 2.68096089e-01
      2.68096089e-01 1.15065336e-01 2.18156889e-01 2.68096089e-01
      1.87341928e-01 6.47102371e-02 7.59598985e-02 2.02930883e-01
      1.11300657e-02 4.99820262e-02 5.12980148e-02 1.28299445e-02
      1.53578473e-02 2.27827206e-03 3.68334819e-03 1.65099744e-02
      2.69441549e-02 5.64314798e-03 8.51480197e-03 3.00446060e-02
      1.10053392e-02 3.59925930e-03 2.66844803e-03 1.03806965e-02</_>
    <_>
      1.87226909e-03 1.60305551e-03 7.08241947e-04 8.92187294e-04
      1.45513788e-02 9.98193771e-03 1.32208280e-02 1.89317670e-02
      7.88953563e-04 1.09676935e-03 1.31461699e-03 1.34940841e-03
      1.41142700e-05 0. 0. 1.41142700e-05 8.34061578e-02 1.02682397e-01
      4.10116278e-02 2.29805987e-02 2.60862619e-01 2.60862619e-01
      2.60862619e-01 2.60862619e-01 2.57545650e-01 1.23266697e-01
      1.56243369e-01 2.60862619e-01 5.82352504e-02 3.06112841e-02
      4.97885533e-02 7.98705742e-02 8.09055045e-02 6.92868009e-02
      5.91303781e-02 6.53704256e-02 2.60862619e-01 2.12076202e-01
      2.30660409e-01 2.60862619e-01 2.60862619e-01 1.96553975e-01
      2.13482052e-01 2.60862619e-01 1.30292803e-01 9.08896253e-02
      7.19621256e-02 1.15490735e-01 1.03332995e-05 0. 0. 1.03332995e-05
      6.04468187e-05 0. 0. 6.04468187e-05 2.58118700e-04 0. 0.
      2.58118700e-04 9.68368186e-05 0. 0. 9.68368186e-05</_>
    <_>
      2.01322287e-02 2.63665989e-02 2.74068676e-02 2.12699492e-02
      6.31251559e-02 1.01089990e-02 1.91645268e-02 7.33521059e-02
      8.03450271e-02 2.89703216e-02 4.03635055e-02 9.07233283e-02
      3.74992825e-02 8.45362525e-03 1.12902597e-02 4.00853902e-02
      4.08934094e-02 1.09542266e-01 7.75693133e-02 7.94472825e-03
      2.29877159e-01 2.43369609e-01 2.12671325e-01 1.95939809e-01
      9.25064236e-02 2.15123426e-02 4.45637442e-02 1.15554251e-01
      1.47137903e-02 5.20362984e-03 1.20544899e-02 2.15663407e-02
      8.62664208e-02 1.57381639e-01 1.35710359e-01 6.25442639e-02
      3.01986605e-01 3.01986605e-01 3.01986605e-01 3.01986605e-01
      3.01986605e-01 9.44632441e-02 1.96190387e-01 3.01986605e-01
      1.33963063e-01 8.03067461e-02 1.11080617e-01 1.61648691e-01
      2.34453450e-03 2.84803864e-02 2.92104948e-02 2.63740728e-03
      3.17311883e-02 4.50209016e-03 8.78111646e-03 3.38511132e-02
      5.43909818e-02 9.80168581e-03 1.78744588e-02 6.15643188e-02
      1.92825403e-02 9.92395356e-03 5.84722590e-03 1.51368789e-02</_>
    <_>
      5.31877438e-03 1.11403903e-02 8.97916220e-03 3.08645517e-03
      1.98465791e-02 1.49697429e-02 1.29394680e-02 1.80731025e-02
      1.23847730e-03 1.29773538e-03 1.14737940e-03 1.47273054e-03
      4.57582155e-06 0. 0. 4.57582155e-06 1.09887488e-01 1.22332685e-01
      5.44821993e-02 3.92704122e-02 2.86260992e-01 2.86260992e-01
      2.86260992e-01 2.86260992e-01 2.86260992e-01 7.33527318e-02
      1.12402625e-01 2.86260992e-01 6.46967143e-02 3.19684856e-02
      2.96884272e-02 6.23997673e-02 1.06045015e-01 7.46398419e-02
      4.68339697e-02 7.25746453e-02 2.86260992e-01 1.14263535e-01
      1.54665336e-01 2.86260992e-01 2.86260992e-01 8.68790895e-02
      1.22662827e-01 2.86260992e-01 1.25423044e-01 7.28776082e-02
      4.39756960e-02 9.97544900e-02 9.48506749e-06 0. 0. 9.48506749e-06
      2.39635083e-05 0. 0. 2.39635083e-05 4.57564565e-05 0. 0.
      4.57564565e-05 1.59181927e-05 0. 0. 1.59181927e-05</_>
    <_>
      3.85129638e-03 2.33108271e-02 2.24014930e-02 2.76230997e-03
      6.53214054e-03 5.97933494e-03 5.09302970e-03 5.51523268e-03
      1.66909266e-02 1.47982202e-02 9.13927238e-03 9.88579914e-03
      7.52211723e-04 6.94872928e-04 6.58452802e-04 6.63677056e-04
      3.06099094e-02 7.94597492e-02 6.76307604e-02 1.72923338e-02
      1.98716730e-01 2.50579894e-01 2.69151032e-01 2.14006111e-01
      6.02938607e-02 4.92704697e-02 8.16076696e-02 9.09487680e-02
      3.62037658e-03 1.18690392e-03 3.69370356e-03 6.38330868e-03
      8.34245011e-02 1.26842827e-01 1.10771179e-01 6.74379990e-02
      2.82220423e-01 2.82220423e-01 2.82220423e-01 2.82220423e-01
      2.82220423e-01 1.86049819e-01 2.82220423e-01 2.82220423e-01
      1.27180442e-01 6.65647686e-02 1.25977322e-01 1.90633506e-01
      9.75841470e-03 2.64889579e-02 3.02780196e-02 1.37525387e-02
      6.01157993e-02 9.18152090e-03 2.32715402e-02 7.41149262e-02
      8.64370391e-02 2.20134165e-02 4.46301028e-02 1.08073898e-01
      3.43572274e-02 2.37709228e-02 2.31257491e-02 3.47737931e-02</_>
    <_>
      2.58161444e-02 1.16760321e-02 1.26555059e-02 2.57023256e-02
      6.40965998e-02 1.66039150e-02 1.59502272e-02 6.12204000e-02
      6.74074665e-02 2.15498451e-03 4.08467278e-03 6.82672784e-02
      2.85018329e-02 3.05879535e-03 3.60244978e-03 2.94819046e-02
      5.33692837e-02 7.57217258e-02 4.10283990e-02 1.67789049e-02
      1.87902495e-01 2.46298224e-01 2.19617710e-01 1.65281966e-01
      5.01659252e-02 1.34880766e-02 1.67505387e-02 5.29614314e-02
      8.76565557e-03 2.11983267e-03 3.87183018e-03 9.44992434e-03
      2.05235645e-01 1.97769091e-01 1.00470290e-01 1.03931367e-01
      3.11227888e-01 3.11227888e-01 3.11227888e-01 3.11227888e-01
      3.11227888e-01 5.95071353e-02 6.95234090e-02 3.11227888e-01
      1.57698765e-01 7.15654343e-02 5.70484363e-02 1.44349277e-01
      2.53065061e-02 1.61795169e-02 2.04737559e-02 2.78347656e-02
      9.04361010e-02 1.32460650e-02 2.30290852e-02 9.75855812e-02
      1.03961274e-01 7.71849696e-03 1.33824127e-03 9.78705063e-02
      2.68516000e-02 1.37293171e-02 2.96344911e-03 1.67572051e-02</_>
    <_>
      1.87226909e-03 1.60305551e-03 7.08241947e-04 8.92187294e-04
      1.45513788e-02 9.98193771e-03 1.32208280e-02 1.89317670e-02
      7.88953563e-04 1.09676935e-03 1.31461699e-03 1.34940841e-03
      1.41142700e-05 0. 0. 1.41142700e-05 8.34061578e-02 1.02682397e-01
      4.10116278e-02 2.29805987e-02 2.60862619e-01 2.60862619e-01
      2.60862619e-01 2.60862619e-01 2.57545650e-01 1.23266697e-01
      1.56243369e-01 2.60862619e-01 5.82352504e-02 3.06112841e-02
      4.97885533e-02 7.98705742e-02 8.09055045e-02 6.92868009e-02
      5.91303781e-02 6.53704256e-02 2.60862619e-01 2.12076202e-01
      2.30660409e-01 2.60862619e-01 2.60862619e-01 1.96553975e-01
      2.13482052e-01 2.60862619e-01 1.30292803e-01 9.08896253e-02
      7.19621256e-02 1.15490735e-01 1.03332995e-05 0. 0. 1.03332995e-05
      6.04468187e-05 0. 0. 6.04468187e-05 2.58118700e-04 0. 0.
      2.58118700e-04 9.68368186e-05 0. 0. 9.68368186e-05</_>
    <_>
      9.67046246e-03 6.10703323e-03 6.06832653e-03 1.05379298e-02
      3.41771170e-02 1.43346107e-02 1.83048192e-02 3.73183005e-02
      5.52613586e-02 8.96436349e-03 1.15608573e-02 5.78017943e-02
      2.57316008e-02 7.32313283e-03 1.02311978e-02 2.82966997e-02
      8.49850401e-02 8.30075368e-02 5.80635108e-02 5.14233522e-02
      1.28362164e-01 1.11512400e-01 1.38346404e-01 1.46720201e-01
      1.51847592e-02 4.67719883e-03 4.10217186e-03 1.47745302e-02
      6.28591399e-04 1.19783563e-05 1.19783563e-05 6.30625524e-04
      2.63629317e-01 2.33452216e-01 1.31904662e-01 1.59007177e-01
      3.07738513e-01 2.99532294e-01 3.07738513e-01 3.07738513e-01
      3.07738513e-01 1.22269467e-01 1.63555384e-01 3.07738513e-01
      1.02729566e-01 5.65399602e-02 7.65087456e-02 1.27247199e-01
      2.97937728e-02 7.40442146e-03 1.02288276e-02 3.35822441e-02
      1.16788581e-01 1.80606321e-02 3.52599211e-02 1.34258285e-01
      1.50677785e-01 2.35045254e-02 2.94352155e-02 1.56020209e-01
      3.95209417e-02 2.59031672e-02 2.04922464e-02 3.43516581e-02</_>
    <_>
      2.02900078e-03 8.31683166e-03 8.37677531e-03 2.20694859e-03
      1.90692283e-02 1.34015456e-02 1.09121539e-02 1.67360138e-02
      3.24510247e-03 2.06113164e-03 4.31434996e-03 5.48999896e-03
      1.72169639e-05 0. 0. 1.72169639e-05 4.57719117e-02 6.47572204e-02
      4.53599282e-02 2.65067350e-02 2.75746346e-01 2.75746346e-01
      2.75746346e-01 2.75746346e-01 2.75746346e-01 9.29836631e-02
      1.55387715e-01 2.75746346e-01 1.19716801e-01 4.62928116e-02
      4.39103991e-02 1.16502859e-01 5.42236604e-02 6.79593086e-02
      6.85297698e-02 5.53113706e-02 2.75746346e-01 1.46968827e-01
      1.53844580e-01 2.75746346e-01 2.75746346e-01 9.87673998e-02
      1.13659292e-01 2.75746346e-01 1.91743001e-01 7.24647120e-02
      6.29267395e-02 1.79893389e-01 5.26743103e-03 1.07660759e-02
      1.16350604e-02 6.38346234e-03 6.80282392e-05 8.74967736e-06
      8.74967736e-06 6.80282392e-05 5.08156882e-05 0. 0. 5.08156882e-05
      3.59986734e-05 0. 0. 3.59986734e-05</_>
    <_>
      1.03920791e-02 8.78885272e-04 7.41038180e-04 1.03241708e-02
      2.52522621e-02 1.85251911e-03 2.65714875e-03 2.56642401e-02
      2.18375865e-02 9.10667768e-06 1.05321951e-05 2.18363628e-02
      9.27761290e-03 1.19722048e-02 1.28310081e-02 9.97073855e-03
      1.70495272e-01 1.85823768e-01 9.26272944e-02 7.67255723e-02
      2.84736633e-01 2.18060210e-01 2.39707649e-01 2.84736633e-01
      2.28693441e-01 3.23358178e-02 4.55443710e-02 2.42503956e-01
      2.95309518e-02 5.97777516e-02 6.07523546e-02 3.19599956e-02
      1.83328077e-01 1.51801571e-01 9.39360112e-02 1.27438068e-01
      2.84736633e-01 1.45315319e-01 1.79912031e-01 2.84736633e-01
      2.84736633e-01 1.36761889e-01 1.17868602e-01 2.84736633e-01
      6.88037053e-02 1.17908299e-01 1.00943148e-01 5.33206649e-02
      2.71389072e-05 0. 0. 2.71389072e-05 5.77909741e-05 0. 0.
      5.77909741e-05 3.06529691e-05 4.96606981e-06 4.96606981e-06
      3.06529691e-05 7.76639627e-03 3.04854605e-02 2.78895888e-02
      6.10329630e-03</_>
    <_>
      4.59433440e-03 3.21905734e-03 2.52282247e-03 3.59344669e-03
      6.68777432e-03 4.38274397e-03 3.82739259e-03 5.86667331e-03
      2.43228133e-05 4.18694981e-06 4.18694981e-06 2.43228133e-05 0. 0.
      0. 0. 1.91875279e-01 1.98085189e-01 1.05484307e-01 9.74303558e-02
      2.88094610e-01 2.00830594e-01 2.15253085e-01 2.88094610e-01
      2.77220607e-01 6.72671720e-02 4.91294973e-02 2.61078745e-01
      4.66325879e-02 2.77217049e-02 2.32927017e-02 4.36646678e-02
      2.05694288e-01 1.21001206e-01 8.23709518e-02 1.66450948e-01
      2.88094610e-01 6.53638691e-02 1.06957622e-01 2.88094610e-01
      2.88094610e-01 1.54437318e-01 6.95055500e-02 2.88094610e-01
      1.03562854e-01 7.91120455e-02 3.62211354e-02 6.44148439e-02
      3.00533484e-05 0. 0. 3.00533484e-05 3.30961702e-05 0. 0.
      3.30961702e-05 5.93190525e-05 0. 0. 5.93190525e-05 2.03656964e-05
      0. 0. 2.03656964e-05</_>
    <_>
      1.50475446e-02 9.26273316e-02 8.52433518e-02 8.45136028e-03
      1.23818116e-02 3.40168960e-02 2.87144762e-02 7.45281437e-03
      7.68483616e-03 5.27523970e-03 5.08609647e-03 6.56726165e-03
      2.14872898e-06 6.55329632e-06 6.55329632e-06 2.14872898e-06
      4.77640294e-02 2.21232936e-01 1.96781486e-01 2.37367991e-02
      2.45038077e-01 2.45038077e-01 2.16183946e-01 1.25769377e-01
      2.45038077e-01 2.44491696e-01 1.93177000e-01 2.45038077e-01
      1.00960359e-01 1.66788716e-02 3.16636302e-02 1.14893533e-01
      5.13234660e-02 2.10474551e-01 1.90851733e-01 3.18666548e-02
      2.45038077e-01 2.14496881e-01 1.38231695e-01 2.08327726e-01
      2.45038077e-01 6.52257353e-02 5.92663996e-02 2.45038077e-01
      1.71514034e-01 4.74269092e-02 5.87889627e-02 1.82313412e-01
      3.53486501e-02 7.98704848e-02 7.68989399e-02 3.30620259e-02
      5.21682063e-03 1.03891566e-02 1.02458782e-02 5.28761279e-03
      3.15361358e-05 0. 0. 3.15361358e-05 2.74388749e-05 0. 0.
      2.74388749e-05</_>
    <_>
      7.98420981e-03 5.43720974e-03 3.74921039e-03 6.05216436e-03
      9.17241443e-03 5.95072703e-03 6.64388435e-03 9.04172380e-03
      2.60770066e-05 1.19748702e-05 1.19748702e-05 2.60770066e-05
      1.32143416e-03 2.42319070e-02 2.57257316e-02 2.64047133e-03
      2.06496239e-01 2.19548777e-01 1.36544168e-01 1.17904812e-01
      2.88066894e-01 1.90958291e-01 2.40953311e-01 2.88066894e-01
      2.88066894e-01 3.72534916e-02 5.43754511e-02 2.88066894e-01
      3.67489345e-02 6.37416914e-02 7.46622682e-02 4.50149998e-02
      1.64171025e-01 9.33086351e-02 7.48534277e-02 1.44433275e-01
      2.88066894e-01 4.94730137e-02 7.74525404e-02 2.88066894e-01
      2.88066894e-01 7.30095953e-02 6.40587211e-02 2.88066894e-01
      6.11933917e-02 7.36419633e-02 6.55125156e-02 5.00262789e-02
      1.47126466e-05 0. 0. 1.47126466e-05 2.85796395e-05 0. 0.
      2.85796395e-05 4.00963581e-05 8.19274192e-06 8.19274192e-06
      4.00963581e-05 1.35581219e-03 1.33145247e-02 1.39765097e-02
      1.89203979e-03</_>
    <_>
      5.79291896e-04 0. 0. 5.79291896e-04 5.86409937e-04 0. 0.
      5.86409937e-04 0. 1.72002910e-06 1.72002910e-06 0. 1.68699410e-03
      1.27325475e-03 1.22622575e-03 1.67859532e-03 1.42643973e-01
      1.64060608e-01 1.35745957e-01 1.20778821e-01 2.29398713e-01
      1.32270679e-01 1.96791857e-01 2.96702117e-01 1.85079753e-01
      3.69579308e-02 5.22672348e-02 2.01430842e-01 2.19842996e-02
      1.18368762e-02 2.39688382e-02 3.46808657e-02 2.22785160e-01
      1.22824386e-01 1.28988951e-01 2.34464765e-01 3.09876323e-01
      7.20599517e-02 1.55315191e-01 3.09876323e-01 3.09876323e-01
      1.63950458e-01 1.84577972e-01 3.09876323e-01 8.96610618e-02
      7.61106089e-02 7.53424987e-02 8.89602378e-02 2.08104751e-03 0. 0.
      2.08104751e-03 6.43873913e-03 1.42972622e-05 1.42972622e-05
      6.43873913e-03 9.37849842e-03 2.55995849e-03 2.60889204e-03
      9.47328005e-03 2.50187563e-03 1.51740806e-03 1.53231900e-03
      2.33284640e-03</_>
    <_>
      5.12958551e-03 4.05682251e-03 1.01819891e-03 1.86033535e-03
      1.13690738e-03 2.05881361e-06 2.05881361e-06 1.13690738e-03 0. 0.
      0. 0. 0. 0. 0. 0. 9.05329362e-02 1.06583484e-01 4.65786904e-02
      3.23180817e-02 2.55230516e-01 2.84019887e-01 2.78498530e-01
      2.47932568e-01 1.24243721e-01 4.44977283e-02 6.06110021e-02
      1.38617098e-01 1.57964304e-02 8.06411728e-03 1.60757471e-02
      2.34918278e-02 1.52170971e-01 1.41986489e-01 9.19309109e-02
      1.02099918e-01 2.89464027e-01 2.11235344e-01 2.43307039e-01
      2.89464027e-01 2.89464027e-01 2.29965240e-01 2.07240075e-01
      2.89464027e-01 1.35652170e-01 1.04176939e-01 6.48267046e-02
      9.66800451e-02 6.44298643e-03 1.65193202e-03 2.32592504e-03
      6.96368748e-03 3.63247767e-02 2.98877992e-03 5.83683746e-03
      3.90195474e-02 4.91151363e-02 1.36777395e-02 1.07585778e-02
      4.64880578e-02 1.21529903e-02 8.99039954e-03 6.07316568e-03
      9.28664394e-03</_>
    <_>
      2.57994707e-05 0. 0. 2.57994707e-05 4.37397648e-05 0. 0.
      4.37397648e-05 0. 0. 0. 0. 0. 0. 0. 0. 1.30797982e-01
      1.53211653e-01 1.06268056e-01 8.25517029e-02 1.59666449e-01
      1.50571734e-01 2.17083797e-01 2.20213920e-01 7.23808110e-02
      1.41070439e-02 2.71928310e-02 8.08333233e-02 7.36346515e-03
      2.87706545e-03 4.98006772e-03 9.57137626e-03 2.40836427e-01
      1.84031084e-01 1.60932869e-01 2.18410462e-01 3.04717541e-01
      1.54936358e-01 3.04717541e-01 3.04717541e-01 3.04717541e-01
      1.28331989e-01 2.09962517e-01 3.04717541e-01 1.17532469e-01
      7.30887130e-02 7.97138661e-02 1.22434184e-01 1.31847002e-02
      2.78907479e-03 6.11599488e-03 1.68599896e-02 6.45579174e-02
      7.60144461e-03 1.59540437e-02 7.27004707e-02 8.65781233e-02
      1.86010338e-02 1.83706991e-02 8.68141428e-02 2.08150391e-02
      1.29181230e-02 5.55387419e-03 1.34091452e-02</_>
    <_>
      1.07602524e-02 1.86843071e-02 1.40831936e-02 5.81272086e-03
      2.08717603e-02 9.40004736e-03 1.16585139e-02 2.29192153e-02
      1.91890486e-02 6.57711085e-03 5.69858449e-03 1.86868403e-02
      1.18745277e-02 4.35204105e-03 3.41682578e-03 1.12807136e-02
      7.39655867e-02 9.78492573e-02 4.26203348e-02 1.89188085e-02
      2.77235001e-01 2.77235001e-01 1.18098274e-01 1.23849377e-01
      2.77235001e-01 2.77235001e-01 8.86969715e-02 8.09494779e-02
      1.30784228e-01 1.57869264e-01 9.43860561e-02 7.33568817e-02
      5.55251092e-02 9.69456136e-02 1.03170276e-01 6.16135187e-02
      2.77235001e-01 2.77235001e-01 2.41511106e-01 2.63894647e-01
      2.77235001e-01 2.77235001e-01 1.09885149e-01 7.81753957e-02
      9.05469880e-02 1.77462474e-01 1.38333291e-01 5.52965961e-02
      5.92562649e-03 8.60416144e-03 1.71694141e-02 1.41988294e-02
      8.17183703e-02 3.82456258e-02 4.14075367e-02 8.47311243e-02
      6.48885444e-02 5.65880574e-02 1.36254830e-02 2.25547291e-02
      1.60978064e-02 1.66272223e-02 2.12039817e-02 2.10889298e-02</_>
    <_>
      7.48125184e-03 1.05091808e-02 5.74216060e-03 2.69818539e-03
      2.61116754e-02 1.65886395e-02 1.71742905e-02 2.62861978e-02
      2.05213521e-02 1.59356277e-02 9.82570183e-03 1.41099487e-02
      8.13340768e-03 6.16763718e-03 7.43466616e-03 9.21022519e-03
      9.71265808e-02 1.34299263e-01 5.41356504e-02 1.60223041e-02
      2.61090636e-01 2.61090636e-01 1.41679227e-01 1.41547486e-01
      2.61090636e-01 2.61090636e-01 1.72758386e-01 1.35778993e-01
      6.64357096e-02 1.06989354e-01 1.05747975e-01 6.30039647e-02
      3.51050198e-02 1.00963838e-01 1.41901121e-01 7.42804334e-02
      2.61090636e-01 2.61090636e-01 2.51470596e-01 2.32926741e-01
      2.61090636e-01 2.61090636e-01 2.38528818e-01 9.35903639e-02
      3.14588174e-02 1.44537106e-01 1.40668333e-01 2.72786021e-02
      5.97118400e-03 1.10606458e-02 2.39608996e-02 1.85469594e-02
      8.58089924e-02 6.76681325e-02 6.13228492e-02 8.02559927e-02
      5.90694211e-02 7.36045092e-02 3.65370922e-02 2.52883676e-02
      1.29233794e-02 2.80991197e-02 2.74608992e-02 1.29826935e-02</_>
    <_>
      1.58627015e-02 1.41226836e-02 7.17082992e-03 8.69528297e-03
      5.49533814e-02 4.37973514e-02 3.08116190e-02 4.36547846e-02
      5.99959232e-02 5.42903915e-02 1.44077344e-02 2.11759750e-02
      1.81165282e-02 1.74223632e-02 1.41739985e-02 1.50197092e-02
      9.56173688e-02 1.37053639e-01 7.84484521e-02 3.55547927e-02
      2.70744652e-01 2.70744652e-01 1.58832386e-01 1.46075800e-01
      2.70744652e-01 2.70744652e-01 1.84633881e-01 9.92632285e-02
      4.80320342e-02 1.42653763e-01 1.33811712e-01 3.79729830e-02
      2.90926863e-02 5.25260344e-02 1.26032978e-01 1.02587864e-01
      2.70744652e-01 2.70744652e-01 2.34073192e-01 2.70744652e-01
      2.70744652e-01 2.70744652e-01 1.55823827e-01 1.05517507e-01
      4.46986742e-02 1.20336220e-01 1.11292258e-01 3.58348265e-02
      2.48222658e-03 7.54625828e-04 4.17961553e-03 6.22768095e-03
      2.85562482e-02 9.81048495e-03 1.21853817e-02 3.11634596e-02
      1.42695550e-02 1.04655307e-02 7.39082927e-03 1.06671890e-02
      7.36301206e-03 4.87390626e-03 4.20236541e-03 6.35651965e-03</_>
    <_>
      1.00765722e-02 2.53858902e-02 1.82342008e-02 2.58783251e-03
      1.25468552e-01 1.05009891e-01 2.33605523e-02 4.26227972e-02
      8.95589069e-02 8.36074799e-02 2.70319842e-02 3.32274586e-02
      5.88059090e-02 5.62724322e-02 2.29601599e-02 2.57477034e-02
      3.97295281e-02 9.95766446e-02 8.42704698e-02 2.33802237e-02
      2.66876101e-01 2.66876101e-01 2.50370920e-01 2.05600396e-01
      2.66876101e-01 2.66876101e-01 1.40755311e-01 9.34459791e-02
      1.31945074e-01 2.34748393e-01 1.38818711e-01 3.81623432e-02
      1.21065713e-02 5.23826629e-02 8.02546218e-02 4.06890064e-02
      2.29344487e-01 1.31374523e-01 2.66876101e-01 2.66876101e-01
      2.66876101e-01 2.66876101e-01 7.99697042e-02 1.14504017e-01
      5.46903834e-02 1.10921666e-01 9.65995267e-02 3.58910933e-02
      1.12842082e-03 1.40633639e-02 1.37153948e-02 6.86278683e-04
      5.85959619e-03 6.56548771e-04 9.79330740e-04 6.41142484e-03
      4.58166096e-03 1.58155710e-03 1.19361514e-03 4.52932483e-03
      2.02289317e-03 1.21197058e-03 1.14643772e-03 1.80367194e-03</_>
    <_>
      1.44493030e-02 1.13788294e-02 5.66297397e-03 8.47693346e-03
      1.76664796e-02 1.42253079e-02 1.65909939e-02 1.90723129e-02
      4.37237285e-02 3.19808610e-02 1.19168302e-02 2.26571895e-02
      7.53660686e-03 6.87609566e-03 1.17278639e-02 1.24415085e-02
      1.75350174e-01 1.81271642e-01 6.35501072e-02 5.59928156e-02
      2.73250610e-01 2.73250610e-01 1.04736373e-01 1.08885705e-01
      2.73250610e-01 2.73250610e-01 1.75658092e-01 1.57036021e-01
      3.90530005e-02 8.49755183e-02 9.57303941e-02 5.01935482e-02
      6.85151741e-02 8.40277225e-02 1.76028982e-01 1.62549034e-01
      2.73250610e-01 2.73250610e-01 1.37268737e-01 1.65829107e-01
      2.73250610e-01 2.73250610e-01 2.40681633e-01 1.00374952e-01
      4.11866605e-02 1.12846494e-01 9.90818739e-02 2.79781763e-02
      1.51553098e-02 9.29162279e-03 2.68613324e-02 3.31225023e-02
      7.02792704e-02 5.57172634e-02 2.22181417e-02 3.67555358e-02
      2.86602788e-02 3.48016620e-02 3.09983194e-02 2.49340050e-02
      1.21074570e-02 1.47185782e-02 1.28217414e-02 1.01617146e-02</_>
    <_>
      8.10828339e-03 2.18751258e-03 1.22507149e-03 7.22123170e-03
      2.73600798e-02 7.72198569e-03 7.99002871e-03 2.76227668e-02
      2.50934437e-02 6.80032140e-03 3.88729176e-03 2.12791264e-02
      1.61778256e-02 5.78654651e-03 6.38047792e-03 1.63521376e-02
      1.04422495e-01 1.21131673e-01 4.86551300e-02 3.23578343e-02
      2.74147719e-01 2.74147719e-01 1.26090586e-01 1.42713457e-01
      2.74147719e-01 2.74147719e-01 8.19614604e-02 7.23735988e-02
      1.60033777e-01 1.66317493e-01 1.15241550e-01 1.01696454e-01
      4.52611744e-02 7.68007264e-02 1.25322074e-01 9.74485055e-02
      2.74147719e-01 2.74147719e-01 2.17288360e-01 2.74147719e-01
      2.74147719e-01 2.74147719e-01 1.28359705e-01 8.79345238e-02
      9.46411788e-02 1.46984607e-01 1.20347261e-01 6.62117451e-02
      4.09289869e-03 1.44683185e-03 9.56796110e-03 1.30901178e-02
      4.70443778e-02 2.88654864e-02 3.26706208e-02 5.25733903e-02
      2.59927828e-02 2.33516768e-02 1.12351673e-02 1.44955534e-02
      1.44763635e-02 1.06867766e-02 7.80625362e-03 1.14609078e-02</_>
    <_>
      1.39600020e-02 8.79305135e-03 2.87083071e-03 8.00494011e-03
      1.51139786e-02 9.80958808e-03 1.14890821e-02 1.71345882e-02
      2.81154923e-02 1.97643191e-02 9.74331051e-03 1.84680931e-02
      5.40017569e-03 3.80034675e-03 6.22872543e-03 7.87973031e-03
      1.73648968e-01 1.64965078e-01 6.78833202e-02 7.47433677e-02
      2.70508856e-01 2.70508856e-01 1.05945513e-01 1.01210944e-01
      2.70508856e-01 2.70508856e-01 1.74275979e-01 1.71243325e-01
      2.70879213e-02 7.27519542e-02 8.85293931e-02 4.34166677e-02
      6.91770017e-02 7.55992159e-02 1.74886271e-01 1.67922571e-01
      2.70508856e-01 2.70508856e-01 1.70243308e-01 1.88526005e-01
      2.70508856e-01 2.70508856e-01 2.49256477e-01 1.12975970e-01
      2.72430200e-02 1.06125951e-01 1.15303926e-01 3.62923592e-02
      8.69149901e-03 3.46158817e-03 1.46619100e-02 2.03084871e-02
      5.25583811e-02 3.55037563e-02 1.76009350e-02 3.56641337e-02
      1.83333196e-02 2.42995396e-02 2.83955690e-02 2.34984439e-02
      1.06107686e-02 1.39073851e-02 1.45086795e-02 1.11837564e-02</_>
    <_>
      1.03575131e-02 1.70977768e-02 1.13444040e-02 4.10356000e-03
      8.35203901e-02 6.19425476e-02 2.30285451e-02 4.22081873e-02
      6.17879257e-02 5.35380840e-02 2.01865993e-02 2.81512272e-02
      3.13619152e-02 2.85916235e-02 2.18151957e-02 2.40389425e-02
      6.54577985e-02 1.12308055e-01 7.83492699e-02 2.98266262e-02
      2.72734076e-01 2.72734076e-01 1.83912322e-01 1.58911467e-01
      2.72734076e-01 2.72734076e-01 1.52929142e-01 8.42000768e-02
      8.58149454e-02 1.93580523e-01 1.52964413e-01 4.52394933e-02
      2.74645742e-02 5.20145223e-02 9.77712199e-02 7.18545169e-02
      2.72734076e-01 2.26241603e-01 2.72734076e-01 2.72734076e-01
      2.72734076e-01 2.72734076e-01 9.80496481e-02 9.34507176e-02
      6.17117248e-02 1.20392963e-01 1.02297574e-01 4.41307090e-02
      2.72884918e-03 8.27274844e-03 8.74201581e-03 3.36250104e-03
      1.82528701e-02 6.32026093e-03 8.08316097e-03 1.96603220e-02
      1.10390522e-02 5.67895221e-03 2.35736114e-03 7.05445232e-03
      3.10743763e-03 1.72923878e-03 1.59671530e-03 2.59392825e-03</_>
    <_>
      1.27286781e-02 8.64782277e-03 4.50271787e-03 8.88898131e-03
      1.29390024e-02 9.53123253e-03 1.17593957e-02 1.50154717e-02
      3.02288551e-02 1.82284694e-02 1.25940470e-02 2.44495030e-02
      4.41679638e-03 3.21293692e-03 6.24557119e-03 7.61057157e-03
      1.74832016e-01 1.71414047e-01 5.78336790e-02 5.95567077e-02
      2.83074617e-01 2.83074617e-01 8.80724937e-02 8.56759548e-02
      2.83074617e-01 2.83074617e-01 1.97193876e-01 1.69152990e-01
      1.66862383e-02 5.12663089e-02 6.80143386e-02 3.27859595e-02
      1.05611548e-01 1.00311592e-01 1.42495140e-01 1.51780024e-01
      2.83074617e-01 2.83074617e-01 7.73357451e-02 1.08422890e-01
      2.83074617e-01 2.83074617e-01 2.76107222e-01 8.66744146e-02
      2.77952310e-02 8.39078873e-02 7.23579377e-02 1.59284733e-02
      1.83082204e-02 7.09760189e-03 1.92487389e-02 3.08236741e-02
      5.65864481e-02 4.67388853e-02 1.20501677e-02 2.26662382e-02
      4.72607575e-02 5.08685373e-02 3.51794027e-02 3.23375948e-02
      1.40456278e-02 2.02072449e-02 1.20005095e-02 6.30079815e-03</_>
    <_>
      1.11538563e-02 2.48484034e-02 1.93247534e-02 6.24268223e-03
      2.38819569e-02 1.90912783e-02 1.32603711e-02 1.72472913e-02
      1.75317153e-02 1.51165444e-02 1.01979245e-02 1.20785199e-02
      1.31998295e-02 8.44501238e-03 6.78829197e-03 1.10230101e-02
      4.78804074e-02 9.86140594e-02 6.27815649e-02 1.25380019e-02
      2.72121400e-01 2.72121400e-01 1.73808038e-01 1.32180020e-01
      2.72121400e-01 2.72121400e-01 1.04073986e-01 9.40249190e-02
      1.44207120e-01 2.04278335e-01 1.10432908e-01 5.15925996e-02
      1.97920017e-02 7.01796114e-02 8.34895819e-02 3.26838493e-02
      2.69916445e-01 2.58560538e-01 2.72121400e-01 2.72121400e-01
      2.72121400e-01 2.72121400e-01 1.19414546e-01 1.21717878e-01
      7.59987608e-02 1.60268694e-01 1.32877290e-01 4.61190268e-02
      2.16175499e-03 1.22956792e-02 1.74220446e-02 7.06347544e-03
      3.38655561e-02 1.38942786e-02 2.58343499e-02 4.44021225e-02
      3.23475711e-02 2.41115242e-02 9.87599604e-03 1.69587787e-02
      7.25945365e-03 7.60694593e-03 1.18992068e-02 1.14012780e-02</_>
    <_>
      6.73383847e-03 2.09883251e-03 1.85972929e-03 6.55013882e-03
      2.00533364e-02 4.08668630e-03 3.83825530e-03 1.97032169e-02
      1.94285959e-02 5.65221813e-03 3.30543937e-03 1.73943415e-02
      1.02748554e-02 2.93683773e-03 3.68647813e-03 1.11384457e-02
      7.41182938e-02 9.35240090e-02 3.58810946e-02 1.83480196e-02
      2.65642732e-01 2.65642732e-01 1.21954612e-01 1.49920270e-01
      2.65642732e-01 2.65642732e-01 1.38572246e-01 1.25583962e-01
      8.18224028e-02 1.15103394e-01 1.19953990e-01 8.88325050e-02
      3.29676233e-02 8.95651430e-02 1.25309408e-01 7.11753070e-02
      2.65642732e-01 2.65642732e-01 2.65642732e-01 2.62734026e-01
      2.65642732e-01 2.65642732e-01 1.97409540e-01 9.05244872e-02
      3.54556218e-02 1.55974582e-01 1.59021392e-01 3.93963940e-02
      4.81442921e-03 7.18935579e-03 1.95950195e-02 1.74690410e-02
      8.38472396e-02 5.54705001e-02 5.96525148e-02 8.55480507e-02
      5.98451011e-02 5.98603599e-02 2.06421129e-02 2.08464973e-02
      1.20834792e-02 2.28475276e-02 2.69753709e-02 1.67722404e-02</_>
    <_>
      5.13072312e-03 7.95584545e-03 5.20370901e-03 2.33331416e-03
      4.45338190e-02 2.92116757e-02 1.05283838e-02 2.65494399e-02
      2.04268284e-02 1.47000169e-02 1.01779029e-02 1.58879627e-02
      1.42312748e-02 7.74940103e-03 5.59088215e-03 1.18958494e-02
      6.12455048e-02 8.35120454e-02 4.28347103e-02 2.04498470e-02
      2.78584570e-01 2.78584570e-01 1.37596786e-01 1.69840977e-01
      2.78584570e-01 2.78584570e-01 7.56178275e-02 8.71923864e-02
      1.80820987e-01 1.97857678e-01 8.85698497e-02 6.95462897e-02
      1.88386254e-02 5.46323694e-02 9.59211141e-02 5.90894111e-02
      2.78584570e-01 2.18677565e-01 2.64027774e-01 2.78584570e-01
      2.78584570e-01 2.78584570e-01 8.00159797e-02 1.04809768e-01
      9.17783454e-02 1.75730467e-01 1.14639163e-01 3.07740495e-02
      1.60260696e-03 8.00666865e-04 6.73246989e-03 7.07762176e-03
      4.76494282e-02 1.46044539e-02 1.90922618e-02 5.07027581e-02
      3.63391489e-02 2.52830386e-02 4.64962609e-03 1.54487723e-02
      1.03444932e-02 1.26503278e-02 1.09780449e-02 8.36465415e-03</_>
    <_>
      8.73315148e-03 1.46325026e-02 1.48907863e-02 9.21004917e-03
      3.00575644e-02 1.42702088e-02 1.47504164e-02 3.15374881e-02
      2.94628367e-02 1.08431634e-02 2.07754839e-02 3.95167135e-02
      1.93915609e-02 9.27314162e-03 8.83959793e-03 1.90879945e-02
      2.54500695e-02 5.98377474e-02 4.08210903e-02 6.19310979e-03
      2.66781300e-01 2.66781300e-01 1.31256804e-01 1.31859273e-01
      2.21369743e-01 2.30478302e-01 7.84454793e-02 7.05739260e-02
      1.26502678e-01 1.20232120e-01 6.71215728e-02 7.41617382e-02
      3.17000262e-02 9.16913375e-02 1.00553483e-01 4.03656624e-02
      2.66781300e-01 2.66781300e-01 2.66781300e-01 2.66781300e-01
      2.66781300e-01 2.66781300e-01 1.29731745e-01 8.58239084e-02
      1.37334049e-01 2.37508968e-01 1.46156535e-01 4.67418246e-02
      3.24386638e-03 2.15947628e-02 3.01255826e-02 1.17823165e-02
      8.79988521e-02 4.97689284e-02 9.58641395e-02 1.31529450e-01
      1.48971230e-01 1.25284269e-01 2.42728814e-02 5.08858524e-02
      1.76573228e-02 3.54726017e-02 3.82079408e-02 1.96905136e-02</_>
    <_>
      1.61895098e-03 1.32903433e-03 5.49074495e-04 9.54974268e-04
      9.33684967e-03 7.74258189e-03 8.79759621e-03 1.12291686e-02
      1.23087140e-02 8.00494011e-03 4.08927398e-03 8.05544574e-03
      5.66550205e-03 5.47419908e-03 5.39902132e-03 5.49596548e-03
      7.94573873e-02 1.10593095e-01 4.26971875e-02 1.21025387e-02
      2.66666979e-01 2.66666979e-01 1.66431576e-01 1.38209745e-01
      2.66666979e-01 2.66666979e-01 1.66042447e-01 1.14537567e-01
      4.24620770e-02 8.61873999e-02 9.28945988e-02 4.72923107e-02
      3.55006792e-02 1.05936095e-01 1.35353163e-01 6.47720397e-02
      2.66666979e-01 2.66666979e-01 2.65923172e-01 1.98804542e-01
      2.66666979e-01 2.66666979e-01 2.66666979e-01 6.98222667e-02
      1.55442841e-02 1.31623521e-01 1.31689429e-01 1.56088891e-02
      4.33910964e-03 9.14462283e-03 2.70798001e-02 2.23705005e-02
      9.62545574e-02 7.21697733e-02 7.06767738e-02 9.20619667e-02
      6.44960254e-02 7.86583945e-02 3.82827558e-02 2.22069193e-02
      1.49924923e-02 2.68876404e-02 2.32539922e-02 1.09026022e-02</_>
    <_>
      1.81690063e-02 1.21402638e-02 3.10630701e-03 9.22774430e-03
      2.62916181e-02 1.77983306e-02 1.14052808e-02 1.99812278e-02
      4.79613394e-02 3.82421128e-02 1.16176344e-02 1.97577775e-02
      7.33744074e-03 6.46793237e-03 7.76335504e-03 7.97521044e-03
      1.80756450e-01 1.87477425e-01 6.56997040e-02 5.68913370e-02
      2.77835578e-01 2.77835578e-01 8.88700187e-02 9.71668959e-02
      2.77835578e-01 2.77835578e-01 1.96437135e-01 1.21142022e-01
      3.05915549e-02 8.06754529e-02 8.18952248e-02 2.89734975e-02
      6.83136061e-02 8.31631571e-02 1.70328245e-01 1.53981254e-01
      2.77835578e-01 2.77835578e-01 1.48856625e-01 1.64886817e-01
      2.62623578e-01 2.77835578e-01 2.63752311e-01 9.09602270e-02
      4.34924215e-02 9.94919762e-02 9.24098417e-02 3.63402180e-02
      1.05905244e-02 5.93640469e-03 1.50020970e-02 1.87971238e-02
      4.67156619e-02 3.42733711e-02 1.62726641e-02 2.74540335e-02
      1.94957685e-02 2.27595996e-02 2.19681319e-02 1.90791413e-02
      8.97144247e-03 1.08795343e-02 9.13379062e-03 7.18266424e-03</_>
    <_>
      1.11538563e-02 2.48484034e-02 1.93247534e-02 6.24268223e-03
      2.38819569e-02 1.90912783e-02 1.32603711e-02 1.72472913e-02
      1.75317153e-02 1.51165444e-02 1.01979245e-02 1.20785199e-02
      1.31998295e-02 8.44501238e-03 6.78829197e-03 1.10230101e-02
      4.78804074e-02 9.86140594e-02 6.27815649e-02 1.25380019e-02
      2.72121400e-01 2.72121400e-01 1.73808038e-01 1.32180020e-01
      2.72121400e-01 2.72121400e-01 1.04073986e-01 9.40249190e-02
      1.44207120e-01 2.04278335e-01 1.10432908e-01 5.15925996e-02
      1.97920017e-02 7.01796114e-02 8.34895819e-02 3.26838493e-02
      2.69916445e-01 2.58560538e-01 2.72121400e-01 2.72121400e-01
      2.72121400e-01 2.72121400e-01 1.19414546e-01 1.21717878e-01
      7.59987608e-02 1.60268694e-01 1.32877290e-01 4.61190268e-02
      2.16175499e-03 1.22956792e-02 1.74220446e-02 7.06347544e-03
      3.38655561e-02 1.38942786e-02 2.58343499e-02 4.44021225e-02
      3.23475711e-02 2.41115242e-02 9.87599604e-03 1.69587787e-02
      7.25945365e-03 7.60694593e-03 1.18992068e-02 1.14012780e-02</_>
    <_>
      7.30075687e-03 4.67218691e-03 1.89308601e-03 4.58803214e-03
      1.26222121e-02 7.47882435e-03 1.11822607e-02 1.59613732e-02
      2.55253818e-02 1.82803478e-02 5.87916747e-03 1.26533443e-02
      7.21831387e-03 6.16590679e-03 5.27140405e-03 6.67118281e-03
      1.51347682e-01 1.62010074e-01 5.52754402e-02 4.41567041e-02
      2.83534467e-01 2.83534467e-01 1.16108879e-01 1.17905885e-01
      2.83534467e-01 2.83534467e-01 1.38163030e-01 1.19553253e-01
      6.41024858e-02 1.04117282e-01 9.52477083e-02 5.82294203e-02
      6.95685297e-02 9.30132642e-02 1.42972827e-01 1.24397829e-01
      2.83534467e-01 2.83534467e-01 1.45462975e-01 2.06780940e-01
      2.83534467e-01 2.83534467e-01 2.00878203e-01 1.04464158e-01
      6.45714104e-02 1.20226517e-01 1.10848755e-01 5.11808544e-02
      8.78702849e-03 2.63892044e-03 1.30349463e-02 1.93851441e-02
      6.73825517e-02 3.85653637e-02 1.25546604e-02 4.17608432e-02
      3.18070501e-02 2.68446188e-02 1.55914668e-02 2.02444158e-02
      1.53465401e-02 1.26807382e-02 8.59936327e-03 1.11030946e-02</_>
    <_>
      2.38908018e-04 0. 0. 2.38908018e-04 1.56986964e-04 0. 0.
      1.56986964e-04 4.85462479e-05 3.64745324e-06 3.64745324e-06
      4.85462479e-05 6.57544704e-03 2.14097407e-02 1.83774047e-02
      3.34302150e-03 1.50618970e-01 1.42391711e-01 4.88784388e-02
      5.56881763e-02 2.74072230e-01 2.74072230e-01 1.01446241e-01
      9.51787308e-02 2.28308126e-01 2.39456445e-01 1.88080013e-01
      1.73165455e-01 3.51203531e-02 9.89929661e-02 8.03252533e-02
      1.82695221e-02 1.61462516e-01 1.81032702e-01 1.21636495e-01
      9.69655439e-02 2.74072230e-01 2.74072230e-01 1.69774935e-01
      9.19023082e-02 2.48959318e-01 2.74072230e-01 2.74072230e-01
      1.04279891e-01 4.73830625e-02 1.45149842e-01 1.15981311e-01
      2.04442348e-02 3.97319980e-02 2.59236284e-02 3.59817371e-02
      4.98761274e-02 1.03875928e-01 9.88502949e-02 3.27625312e-02
      4.04166430e-02 6.09338395e-02 9.15118381e-02 6.96663857e-02
      4.36722226e-02 2.10333169e-02 6.08314425e-02 5.02281487e-02
      1.03832465e-02</_>
    <_>
      5.32787200e-03 7.90044013e-03 4.85353125e-03 2.64994800e-03
      1.83530673e-02 1.79293845e-02 1.75216943e-02 1.89563558e-02
      3.62986475e-02 2.77803615e-02 5.10989502e-03 1.28174843e-02
      1.23467874e-02 8.12569074e-03 5.89972967e-03 9.72409267e-03
      9.44921896e-02 1.23526424e-01 5.08713871e-02 2.18678378e-02
      2.67846018e-01 2.67846018e-01 1.54593721e-01 1.03042260e-01
      2.67846018e-01 2.67846018e-01 1.49873003e-01 1.10868700e-01
      6.18946739e-02 1.07938953e-01 9.75663438e-02 5.14724702e-02
      4.64631729e-02 9.81608704e-02 1.35049626e-01 8.44893679e-02
      2.67846018e-01 2.67846018e-01 2.67846018e-01 2.29281306e-01
      2.67846018e-01 2.67846018e-01 2.29777187e-01 1.08842112e-01
      4.75237891e-02 1.38499200e-01 1.29766092e-01 3.71175967e-02
      6.40954729e-03 9.74188838e-03 2.44751628e-02 2.13329047e-02
      8.28284919e-02 5.63272983e-02 5.58746532e-02 8.28507692e-02
      4.75579500e-02 5.26503287e-02 3.38570401e-02 2.76161116e-02
      1.56601686e-02 2.07159948e-02 1.88585464e-02 1.32777346e-02</_>
    <_>
      7.90300872e-03 1.10162096e-02 4.93932702e-03 1.89100066e-03
      5.34319244e-02 4.11492549e-02 1.51874237e-02 2.71270350e-02
      5.36148064e-02 4.95221019e-02 1.84804946e-02 2.17831600e-02
      2.63604019e-02 2.07535662e-02 1.74031090e-02 2.23133136e-02
      6.58330247e-02 1.13509528e-01 6.38494566e-02 1.78388637e-02
      2.64706939e-01 2.64706939e-01 1.58558622e-01 1.10461652e-01
      2.64706939e-01 2.64706939e-01 1.98332027e-01 1.01268314e-01
      9.12232697e-02 1.71290070e-01 1.43192708e-01 6.26436695e-02
      1.53286774e-02 6.82602376e-02 1.13760009e-01 6.17675968e-02
      2.64706939e-01 2.64706939e-01 2.64706939e-01 2.64706939e-01
      2.64706939e-01 2.64706939e-01 1.68881148e-01 9.85591412e-02
      4.88621965e-02 1.47468626e-01 1.36714742e-01 3.95703726e-02
      3.59659269e-03 6.51541818e-03 1.21021941e-02 8.91193002e-03
      4.17837873e-02 2.55227815e-02 3.10304482e-02 4.87984940e-02
      2.70773843e-02 2.44274978e-02 1.04406225e-02 1.32430717e-02
      7.83385150e-03 9.78324376e-03 9.47305094e-03 7.95281585e-03</_>
    <_>
      9.22289211e-03 1.11017153e-02 5.07187610e-03 3.11058247e-03
      3.47903334e-02 2.52883118e-02 1.85341798e-02 2.74458416e-02
      4.42768484e-02 3.46912406e-02 9.07655340e-03 1.76941231e-02
      1.45525010e-02 1.01807211e-02 8.64539389e-03 1.31721087e-02
      9.25963894e-02 1.37742117e-01 7.45539889e-02 2.89049186e-02
      2.70703912e-01 2.70703912e-01 1.46444768e-01 1.34076938e-01
      2.70703912e-01 2.70703912e-01 1.85628459e-01 1.29580870e-01
      6.55825064e-02 1.16817795e-01 1.09561034e-01 5.80196343e-02
      3.11846752e-02 6.75484389e-02 1.20542556e-01 8.56933892e-02
      2.70703912e-01 2.70703912e-01 2.46443540e-01 2.70703912e-01
      2.70703912e-01 2.70703912e-01 1.91272840e-01 1.20202132e-01
      5.07202782e-02 1.13058552e-01 1.10483199e-01 4.52475622e-02
      4.08863230e-03 5.62410289e-03 9.66549199e-03 8.34261533e-03
      3.09354272e-02 1.89774875e-02 1.69471577e-02 3.11280303e-02
      1.64671205e-02 1.49139948e-02 1.05620706e-02 1.28272064e-02
      7.15210289e-03 6.54437067e-03 6.63261721e-03 6.89834310e-03</_>
    <_>
      1.36806285e-02 1.81530491e-02 8.28918163e-03 3.70083819e-03
      9.00780112e-02 6.75494149e-02 2.15677768e-02 4.57416847e-02
      6.68419451e-02 5.98916337e-02 1.48867173e-02 2.27447916e-02
      3.89037132e-02 3.03977579e-02 1.93039551e-02 2.79256552e-02
      4.76006977e-02 1.04924507e-01 9.31334943e-02 3.59126106e-02
      2.71020472e-01 2.71020472e-01 2.04577848e-01 1.86195597e-01
      2.71020472e-01 2.71020472e-01 1.36540040e-01 7.46733397e-02
      1.17885970e-01 1.97587028e-01 1.57450274e-01 7.42107332e-02
      1.18646799e-02 4.29918729e-02 9.69457552e-02 6.77899718e-02
      2.66730070e-01 1.96911916e-01 2.71020472e-01 2.71020472e-01
      2.71020472e-01 2.71020472e-01 8.60245526e-02 8.27180892e-02
      5.75732812e-02 1.15599021e-01 1.07942365e-01 4.94189002e-02
      8.74854624e-03 1.04429107e-02 1.29030356e-02 1.13917440e-02
      2.68748831e-02 7.96709023e-03 8.56547523e-03 2.80625168e-02
      2.12193113e-02 7.73492921e-03 7.29446858e-03 2.12772153e-02
      9.35398880e-03 2.75820447e-03 2.43163039e-03 9.02966503e-03</_>
    <_>
      8.34975764e-03 4.60975291e-03 4.18540463e-03 7.86522031e-03
      2.05758102e-02 1.42186759e-02 1.09480051e-02 1.72809735e-02
      1.86458770e-02 6.37775287e-03 5.50608151e-03 1.73991341e-02
      7.39919301e-03 1.52698508e-03 2.41246168e-03 8.37017968e-03
      1.65456086e-01 1.61988452e-01 5.58926761e-02 5.76289259e-02
      2.26787135e-01 2.23918691e-01 9.86602604e-02 1.00954525e-01
      2.81028450e-01 2.81028450e-01 1.22897729e-01 1.60312176e-01
      5.14383018e-02 6.08814806e-02 7.74521083e-02 6.74344525e-02
      1.16711192e-01 1.38736755e-01 1.50894210e-01 1.29918277e-01
      2.81028450e-01 2.81028450e-01 1.20548755e-01 1.68010324e-01
      2.81028450e-01 2.81028450e-01 2.48425946e-01 1.25373557e-01
      5.43558858e-02 1.26220927e-01 1.29832342e-01 5.57048991e-02
      2.33456641e-02 7.08612427e-03 3.93240191e-02 5.52029535e-02
      1.31414115e-01 9.07781273e-02 3.16803753e-02 7.44097531e-02
      5.33386841e-02 6.50666356e-02 4.58166450e-02 3.64461355e-02
      2.76006348e-02 3.22620347e-02 2.32894663e-02 1.87711883e-02</_>
    <_>
      1.04112914e-02 6.52882922e-03 4.74795559e-03 8.47775955e-03
      1.30297737e-02 7.13760825e-03 1.36330267e-02 1.91735607e-02
      1.90264564e-02 1.07051069e-02 6.04349934e-03 1.36149228e-02
      5.16935810e-03 3.84972058e-03 4.53508180e-03 5.76361967e-03
      1.51924446e-01 1.55632228e-01 5.88863790e-02 5.58337867e-02
      2.64808148e-01 2.64808148e-01 1.31879151e-01 1.36131674e-01
      2.64808148e-01 2.64808148e-01 2.07177579e-01 1.78250417e-01
      2.57383157e-02 8.03099200e-02 9.12356749e-02 3.63671817e-02
      6.44309893e-02 9.66645107e-02 1.76920623e-01 1.47230059e-01
      2.64808148e-01 2.64808148e-01 1.35786831e-01 1.52539253e-01
      2.64808148e-01 2.64808148e-01 2.64808148e-01 8.92869234e-02
      9.81932785e-03 1.15582272e-01 1.18805647e-01 1.29123610e-02
      1.77328661e-02 6.79142959e-03 3.25885266e-02 4.53556813e-02
      1.20126113e-01 8.11433569e-02 1.81309115e-02 5.85588887e-02
      4.43509333e-02 6.14420921e-02 5.01761064e-02 3.24591957e-02
      1.65222976e-02 2.49604080e-02 2.39115506e-02 1.55616133e-02</_>
    <_>
      1.43060656e-02 1.24657229e-02 2.93895509e-03 4.66591399e-03
      4.11933176e-02 3.14076468e-02 2.39883363e-02 3.36996578e-02
      4.39575128e-02 3.18453796e-02 1.00097703e-02 2.31592078e-02
      1.00533422e-02 4.35806531e-03 7.58758094e-03 1.32287685e-02
      1.18675284e-01 1.55558899e-01 7.78979883e-02 4.15016226e-02
      2.77563214e-01 2.77563214e-01 1.34321928e-01 1.36873081e-01
      2.77563214e-01 2.77563214e-01 1.90470129e-01 1.28584117e-01
      4.24200222e-02 9.40798968e-02 9.64358672e-02 4.55227196e-02
      4.24723886e-02 7.24612251e-02 1.41583875e-01 1.14864133e-01
      2.77563214e-01 2.77563214e-01 1.69737503e-01 2.33872160e-01
      2.77563214e-01 2.77563214e-01 2.25985929e-01 9.33272094e-02
      3.44455577e-02 1.16768934e-01 1.06884800e-01 2.61908341e-02
      4.61711409e-03 2.60535488e-03 6.83936290e-03 9.07432381e-03
      3.34995016e-02 2.03875937e-02 1.26239816e-02 2.61858217e-02
      1.35774575e-02 1.53272143e-02 1.68389175e-02 1.62357669e-02
      6.97287265e-03 1.28350770e-02 1.36307264e-02 8.46862979e-03</_>
    <_>
      1.99649315e-02 1.68481842e-02 3.63994669e-03 6.83539361e-03
      3.72626707e-02 2.85182577e-02 3.10994443e-02 4.07947823e-02
      2.82300990e-02 2.45071556e-02 1.08510582e-02 1.38134118e-02
      1.29365837e-02 1.21004088e-02 1.35557419e-02 1.44714331e-02
      1.30066022e-01 1.74690381e-01 7.82650188e-02 3.75638306e-02
      2.67171055e-01 2.67171055e-01 1.31980687e-01 1.33284375e-01
      2.67171055e-01 2.67171055e-01 1.48842752e-01 1.02945454e-01
      7.33230636e-02 1.33446857e-01 1.46854132e-01 8.51540491e-02
      4.03931439e-02 6.22545220e-02 1.50847897e-01 1.32869303e-01
      2.67171055e-01 2.67171055e-01 1.88305259e-01 2.67171055e-01
      2.67171055e-01 2.67171055e-01 1.64604545e-01 9.18672606e-02
      7.22200051e-02 1.52124405e-01 1.33321166e-01 4.97448444e-02
      4.65859706e-03 1.43782620e-03 8.13187752e-03 1.21777207e-02
      4.50983867e-02 2.46326644e-02 1.95369460e-02 3.97580415e-02
      1.94911342e-02 1.92841049e-02 1.09768249e-02 1.02204569e-02
      1.50280697e-02 1.69836022e-02 1.00230779e-02 7.83335324e-03</_>
    <_>
      1.12572452e-02 5.21270605e-03 4.79373755e-03 1.09039070e-02
      2.00521164e-02 7.30079878e-03 7.45820533e-03 2.01913472e-02
      3.35033312e-02 1.32390615e-02 7.82975368e-03 2.84556765e-02
      9.73427575e-03 2.45099305e-03 5.70501108e-03 1.35581531e-02
      1.67647764e-01 1.72222480e-01 5.98896332e-02 5.86073510e-02
      2.69792885e-01 2.69792885e-01 9.83443931e-02 1.08464018e-01
      2.69792885e-01 2.69792885e-01 1.80863947e-01 1.74067974e-01
      2.21113190e-02 7.37252310e-02 9.78234932e-02 4.87503223e-02
      8.56192484e-02 1.00559920e-01 1.74623981e-01 1.62061453e-01
      2.69792885e-01 2.69792885e-01 1.21490374e-01 1.85016796e-01
      2.69792885e-01 2.69792885e-01 2.54436970e-01 1.11882150e-01
      2.67359521e-02 1.09328412e-01 1.18044235e-01 3.47905979e-02
      1.45209478e-02 3.60980351e-03 2.06668973e-02 3.14408727e-02
      7.84566626e-02 4.97913472e-02 1.55190611e-02 4.30237539e-02
      2.28982586e-02 2.83892006e-02 3.00955810e-02 2.47322712e-02
      1.11758281e-02 1.39159588e-02 1.55276293e-02 1.26140425e-02</_>
    <_>
      5.71058772e-04 3.88952525e-04 3.09592142e-04 4.55954723e-04
      6.42247917e-03 2.99616135e-03 2.50998791e-03 6.46636356e-03
      1.61619077e-03 5.48281940e-04 6.90474932e-04 1.82383368e-03
      1.55931886e-03 7.39092706e-04 9.41004721e-04 1.78024208e-03
      7.98942223e-02 9.12792012e-02 2.98547521e-02 1.68947671e-02
      2.52178073e-01 2.52178073e-01 1.21643528e-01 1.92149565e-01
      2.52178073e-01 2.52178073e-01 1.06036350e-01 1.04687639e-01
      8.98460746e-02 1.00602999e-01 1.00975357e-01 8.80144536e-02
      3.49089839e-02 9.51176509e-02 1.28788888e-01 6.43773451e-02
      2.52178073e-01 2.52178073e-01 2.52178073e-01 2.52178073e-01
      2.52178073e-01 2.52178073e-01 1.71964213e-01 1.01495512e-01
      7.14898556e-02 1.99025229e-01 1.77000433e-01 5.00716045e-02
      2.27962411e-03 3.84404603e-03 2.93018240e-02 2.71980911e-02
      9.85808372e-02 5.09217530e-02 1.13710478e-01 1.63311005e-01
      1.03442550e-01 1.00246273e-01 5.34786582e-02 5.87118715e-02
      2.01189537e-02 4.40439135e-02 5.01592904e-02 2.45772004e-02</_>
    <_>
      4.81534377e-03 1.47206045e-03 1.35741057e-03 4.58370242e-03
      1.80147160e-02 7.33763957e-03 1.12866033e-02 2.27616206e-02
      2.54926607e-02 1.43716605e-02 1.95446033e-02 3.11568119e-02
      1.10529549e-02 5.80260064e-03 5.72180469e-03 1.09952427e-02
      1.60749123e-01 1.49434239e-01 4.60140556e-02 4.98203784e-02
      2.47533068e-01 2.09100574e-01 1.14826582e-01 1.39408931e-01
      2.77919561e-01 2.77919561e-01 1.02941930e-01 1.32301748e-01
      7.27960616e-02 7.89206997e-02 8.73024985e-02 8.26329812e-02
      1.18557461e-01 1.54714808e-01 1.60316452e-01 1.21636733e-01
      2.77919561e-01 2.77919561e-01 1.14685617e-01 1.41795173e-01
      2.77919561e-01 2.77919561e-01 2.07629114e-01 9.93857086e-02
      3.56709138e-02 1.58893526e-01 1.54626578e-01 3.33700143e-02
      2.42312513e-02 7.87682086e-03 4.35230210e-02 6.09460548e-02
      1.61410794e-01 9.75798890e-02 2.18970161e-02 8.50124136e-02
      7.35784024e-02 8.57605860e-02 4.42697033e-02 3.25749330e-02
      2.36398187e-02 4.02783900e-02 3.83393429e-02 2.17630025e-02</_>
    <_>
      7.25948531e-03 1.44179445e-03 2.69472669e-03 8.57781805e-03
      3.22306007e-02 3.87123693e-03 7.00932136e-03 3.55506837e-02
      3.45254131e-02 5.00947656e-03 8.04137252e-03 3.77972946e-02
      1.65998340e-02 2.27095955e-03 4.06402536e-03 1.88894179e-02
      1.02788545e-01 1.13429196e-01 4.49221097e-02 3.50450017e-02
      2.35046849e-01 2.35046849e-01 1.56080812e-01 1.99426278e-01
      1.28609776e-01 1.30054533e-01 1.64005071e-01 1.71001360e-01
      6.37493879e-02 5.39771989e-02 1.73479751e-01 1.87350392e-01
      5.93329854e-02 9.94989276e-02 1.59395158e-01 1.19029172e-01
      2.35046849e-01 2.35046849e-01 2.35046849e-01 2.35046849e-01
      2.35046849e-01 2.35046849e-01 2.35046849e-01 2.35046849e-01
      1.25579536e-01 1.52745992e-01 1.50930747e-01 1.24440312e-01
      6.45652646e-03 1.92007876e-03 1.92637295e-02 2.34936196e-02
      7.75098205e-02 2.18655095e-02 4.24985886e-02 9.61039886e-02
      9.11040008e-02 3.79747152e-02 7.49248862e-02 1.26362160e-01
      6.13218024e-02 3.99285555e-02 1.14314668e-02 3.27158049e-02</_>
    <_>
      1.17950775e-02 8.67544860e-03 1.20629079e-03 4.60927049e-03
      3.17026339e-02 2.23469231e-02 1.66313536e-02 2.62612961e-02
      2.39589326e-02 1.74536239e-02 3.91775817e-02 4.56411168e-02
      3.72241787e-03 5.82172582e-03 1.42778223e-02 1.19333370e-02
      1.06520623e-01 1.39291495e-01 6.55070990e-02 3.40871252e-02
      2.44888470e-01 2.44888470e-01 1.94231555e-01 1.67668611e-01
      1.22075640e-01 1.74027294e-01 2.44888470e-01 2.44888470e-01
      2.94239838e-02 7.64198452e-02 1.36280641e-01 8.88883099e-02
      3.79702263e-02 7.38195255e-02 1.33988664e-01 9.79547873e-02
      2.44888470e-01 2.44888470e-01 2.44888470e-01 2.44888470e-01
      2.44888470e-01 2.44888470e-01 2.44888470e-01 2.44888470e-01
      8.93629417e-02 1.39562353e-01 8.25447440e-02 3.06308866e-02
      6.38731243e-03 1.87976740e-03 8.55429377e-03 1.33162504e-02
      5.08820787e-02 1.80571452e-02 3.14651839e-02 6.52576983e-02
      7.00376481e-02 3.36182043e-02 2.95517817e-02 6.55517131e-02
      1.38047971e-02 1.80348568e-02 7.63942814e-03 3.03094927e-03</_>
    <_>
      3.15031293e-03 2.40095076e-03 3.09113966e-04 1.11834204e-03
      2.39702482e-02 1.35657024e-02 1.00427838e-02 2.09308360e-02
      1.15697421e-02 8.57923180e-03 1.20142177e-02 1.50645114e-02
      8.84360354e-03 3.96392774e-03 1.08323190e-02 1.57931019e-02
      7.54362196e-02 9.62978154e-02 4.54339273e-02 2.50378232e-02
      2.47343689e-01 2.47343689e-01 1.49280608e-01 1.68052226e-01
      1.56608671e-01 1.65678933e-01 2.00687796e-01 1.90928757e-01
      6.16815649e-02 7.41790161e-02 1.94444910e-01 1.80952966e-01
      2.83810813e-02 5.26230447e-02 9.08524990e-02 6.72283694e-02
      2.47343689e-01 2.47343689e-01 2.47343689e-01 2.47343689e-01
      2.47343689e-01 2.47343689e-01 2.47343689e-01 2.47343689e-01
      1.78690836e-01 1.73857704e-01 9.14593935e-02 9.80406478e-02
      1.49999454e-03 1.09572744e-03 2.93958769e-03 3.19660595e-03
      3.41405720e-02 1.93858575e-02 2.00235862e-02 3.51915210e-02
      4.43419926e-02 2.02700421e-02 2.87779979e-02 5.36393709e-02
      2.25908943e-02 1.29489591e-02 3.18963337e-03 1.35172848e-02</_>
    <_>
      1.45610981e-03 7.88909208e-04 3.98988748e-04 9.91591020e-04
      6.68228045e-03 3.35174846e-03 5.06766979e-03 8.41787551e-03
      8.26083496e-03 6.06709067e-03 5.29959984e-03 7.31945923e-03
      3.86291440e-03 2.05826783e-03 3.28637706e-03 5.18921670e-03
      9.94940251e-02 1.18946336e-01 4.37436625e-02 2.55864114e-02
      2.27362275e-01 2.27362275e-01 1.90287739e-01 1.89102530e-01
      1.01751104e-01 1.14742443e-01 2.27362275e-01 2.27362275e-01
      4.56420034e-02 5.41776419e-02 1.80330157e-01 1.77228719e-01
      4.92627583e-02 1.08468197e-01 1.56208962e-01 9.43260565e-02
      2.27362275e-01 2.27362275e-01 2.27362275e-01 2.27362275e-01
      2.02713042e-01 2.27362275e-01 2.27362275e-01 2.27362275e-01
      1.12157024e-01 1.71107695e-01 1.46208405e-01 9.01124030e-02
      7.38311559e-03 3.20589263e-03 2.80263890e-02 3.11167538e-02
      9.31916684e-02 3.98407467e-02 6.37496561e-02 1.18099421e-01
      1.06002837e-01 4.99071404e-02 8.74164626e-02 1.45679370e-01
      5.02697118e-02 4.26569842e-02 1.34671982e-02 2.20887698e-02</_>
    <_>
      6.52760034e-03 3.29187373e-03 1.52500870e-03 4.52376949e-03
      9.59550682e-03 4.01044730e-03 6.60330709e-03 1.22286994e-02
      1.56805590e-02 8.10621306e-03 6.56820601e-03 1.44080603e-02
      2.90794927e-03 1.02181383e-03 3.15516884e-03 5.23872813e-03
      1.61487594e-01 1.71185121e-01 4.91393618e-02 4.05440852e-02
      2.16621414e-01 2.18933463e-01 1.46444798e-01 1.47988543e-01
      1.35238141e-01 1.18355356e-01 2.30440214e-01 2.30440214e-01
      3.15323770e-02 4.71597724e-02 1.53857306e-01 1.40227184e-01
      6.92747682e-02 1.18943989e-01 1.61769152e-01 1.11623205e-01
      2.30440214e-01 2.30440214e-01 2.30440214e-01 2.30440214e-01
      2.30440214e-01 2.30440214e-01 2.30440214e-01 2.30440214e-01
      1.12526193e-01 1.71943381e-01 1.14880271e-01 5.41539192e-02
      1.62908882e-02 6.21901639e-03 2.48480402e-02 3.48314904e-02
      8.80153552e-02 3.70967574e-02 6.36428520e-02 1.16121769e-01
      1.27463132e-01 6.64839819e-02 6.55712411e-02 1.27684042e-01
      4.15830351e-02 3.74264829e-02 3.27692833e-03 7.23355683e-03</_>
    <_>
      1.72217730e-02 1.36067560e-02 2.14280304e-03 5.87054947e-03
      4.05513011e-02 2.84940451e-02 2.35857517e-02 3.62474918e-02
      2.24228390e-02 2.48487052e-02 2.06516087e-02 1.88698508e-02
      1.55248037e-02 1.25091048e-02 2.32584644e-02 2.59725843e-02
      1.23756729e-01 1.60481870e-01 8.29456747e-02 3.99268270e-02
      2.41077572e-01 2.41077572e-01 1.58318475e-01 1.61723286e-01
      1.41412497e-01 1.55092478e-01 2.09168673e-01 1.93111211e-01
      7.30226934e-02 9.34051126e-02 1.99650824e-01 1.73735127e-01
      3.91783714e-02 5.89208342e-02 1.46189868e-01 1.22892037e-01
      2.41077572e-01 2.28223398e-01 2.31283724e-01 2.41077572e-01
      2.41077572e-01 1.80016413e-01 2.41077572e-01 2.41077572e-01
      1.94684833e-01 1.86013490e-01 7.32788816e-02 8.24479461e-02
      3.25433281e-03 1.43894088e-03 4.51664114e-03 6.15098467e-03
      2.86757424e-02 1.19828442e-02 1.51528763e-02 3.09914332e-02
      3.82644534e-02 1.24520622e-02 2.83009391e-02 5.38631119e-02
      2.09776387e-02 1.28544532e-02 2.88335606e-03 1.19412737e-02</_>
    <_>
      2.59813061e-03 2.61183432e-03 3.13170161e-03 3.39500303e-03
      1.35704838e-02 9.75618139e-03 1.03454068e-02 1.41472528e-02
      1.81888007e-02 8.86703841e-03 9.58004687e-03 1.93865914e-02
      9.19150747e-03 2.22321250e-03 3.30483145e-03 1.01097664e-02
      1.02773391e-01 1.05321862e-01 3.44866216e-02 3.21618468e-02
      2.38266021e-01 2.38266021e-01 1.36950508e-01 1.32660761e-01
      1.10539116e-01 1.45579159e-01 2.38266021e-01 2.38266021e-01
      1.90283004e-02 3.16774175e-02 1.21934399e-01 1.10748529e-01
      8.90378281e-02 1.18907660e-01 1.29273295e-01 1.02712944e-01
      2.38266021e-01 2.38266021e-01 2.38266021e-01 2.38266021e-01
      2.38266021e-01 2.38266021e-01 2.38266021e-01 2.38266021e-01
      8.76489356e-02 1.40495986e-01 1.31479800e-01 8.01494867e-02
      1.13859950e-02 8.22066143e-03 2.90930215e-02 3.21284682e-02
      1.04460523e-01 5.89831881e-02 7.39887506e-02 1.20477244e-01
      1.48014888e-01 1.00044034e-01 7.42350370e-02 1.23985998e-01
      3.71707529e-02 3.49801555e-02 8.76573566e-03 1.12246815e-02</_>
    <_>
      1.04892924e-02 8.00791848e-03 3.12448642e-03 4.71509201e-03
      3.41043249e-02 2.52606012e-02 2.00244300e-02 2.69055124e-02
      2.70969681e-02 2.11837515e-02 4.11903746e-02 4.78304699e-02
      3.57481861e-03 1.97095633e-03 1.30971950e-02 1.43210655e-02
      8.03996250e-02 1.12449586e-01 7.39556700e-02 3.94986197e-02
      2.42776588e-01 2.42776588e-01 2.25043446e-01 1.59412265e-01
      1.59058645e-01 2.12519005e-01 2.42776588e-01 2.42776588e-01
      3.74473445e-02 7.34142736e-02 1.41182676e-01 1.02597587e-01
      2.42786389e-02 5.42192087e-02 1.20646514e-01 8.86682048e-02
      2.42776588e-01 2.42776588e-01 2.42776588e-01 2.42776588e-01
      2.42776588e-01 2.42776588e-01 2.42776588e-01 2.42776588e-01
      1.14227965e-01 1.45948291e-01 5.87199032e-02 2.57962178e-02
      3.04530025e-03 1.43314723e-03 4.77239396e-03 6.09016465e-03
      2.66908593e-02 1.47880288e-02 2.30153147e-02 3.36652584e-02
      4.17737849e-02 2.26050131e-02 2.17552520e-02 4.16163765e-02
      8.97105690e-03 7.77650112e-03 9.78949945e-04 2.68321950e-03</_>
    <_>
      8.75727274e-03 2.33714795e-03 1.47447991e-03 7.71465059e-03
      1.68337524e-02 6.41250703e-03 5.87648572e-03 1.60476882e-02
      2.38940865e-02 9.12735518e-03 9.20360442e-03 2.52074841e-02
      5.31083066e-03 1.23609265e-03 1.61444559e-03 5.78040769e-03
      1.83115363e-01 1.77407756e-01 4.48986068e-02 4.82788980e-02
      2.23863572e-01 2.17575520e-01 1.22581005e-01 1.31257638e-01
      1.52478725e-01 1.71385571e-01 2.46807024e-01 2.46807024e-01
      2.20778044e-02 4.07036804e-02 8.07982013e-02 6.33044690e-02
      1.25681207e-01 1.32428855e-01 1.43154323e-01 1.41693383e-01
      2.46807024e-01 2.46807024e-01 2.46807024e-01 2.46807024e-01
      2.46807024e-01 2.46807024e-01 2.46807024e-01 2.46807024e-01
      7.08067715e-02 1.02463804e-01 6.23318888e-02 3.08653582e-02
      1.92504842e-02 4.86975303e-03 1.36823403e-02 2.82687247e-02
      6.38952851e-02 2.48894356e-02 3.97983976e-02 7.78400004e-02
      8.54835063e-02 4.77787666e-02 2.25638524e-02 5.91005124e-02
      1.03590358e-02 1.12095913e-02 4.15403862e-03 3.31449625e-03</_>
    <_>
      2.73124012e-03 6.41739881e-03 4.63586301e-03 1.13135530e-03
      1.57878865e-02 8.06967262e-03 5.98975969e-03 1.34350387e-02
      1.68450736e-02 1.44027770e-02 1.33210970e-02 1.57634337e-02
      5.16793691e-03 3.10936943e-03 7.61385541e-03 1.00483820e-02
      8.30491260e-02 1.11258008e-01 5.28229512e-02 2.63676103e-02
      2.39813834e-01 2.39813834e-01 1.38204664e-01 1.40548989e-01
      1.15555912e-01 1.57697037e-01 2.39813834e-01 2.25145280e-01
      4.00110930e-02 6.80415481e-02 1.71303108e-01 1.43658787e-01
      3.76047939e-02 9.16614830e-02 1.42385736e-01 8.98547620e-02
      2.39813834e-01 2.39813834e-01 2.39813834e-01 2.39813834e-01
      2.39813834e-01 2.39813834e-01 2.39813834e-01 2.39813834e-01
      1.30730614e-01 1.85255080e-01 1.07136071e-01 5.24687991e-02
      5.99058578e-03 8.20281170e-03 2.14427374e-02 1.92953087e-02
      7.21300393e-02 3.72834541e-02 6.05329014e-02 9.53810737e-02
      1.00579470e-01 4.73497659e-02 6.28481731e-02 1.16285458e-01
      3.84097062e-02 3.24383974e-02 2.84579443e-03 8.36757571e-03</_>
    <_>
      1.03672510e-02 1.40583105e-02 7.07121054e-03 3.17120715e-03
      5.94803020e-02 4.04976308e-02 2.03176048e-02 3.71874273e-02
      3.50973383e-02 2.37199441e-02 3.44022587e-02 4.49994393e-02
      7.28327129e-03 2.44982587e-03 1.94899496e-02 2.44143885e-02
      7.90656880e-02 1.15670525e-01 8.16375762e-02 4.51986082e-02
      2.39209801e-01 2.39209801e-01 2.16412246e-01 1.96384832e-01
      1.48555383e-01 1.82966635e-01 2.39209801e-01 2.39209801e-01
      4.56496365e-02 9.43574011e-02 1.65785417e-01 1.18575089e-01
      2.65466440e-02 4.85134311e-02 1.05710968e-01 8.49020332e-02
      2.39209801e-01 2.23790795e-01 2.39209801e-01 2.39209801e-01
      2.39209801e-01 2.39209801e-01 2.39209801e-01 2.39209801e-01
      1.41927674e-01 1.74499571e-01 5.78369647e-02 2.24489234e-02
      1.59448129e-03 7.60897645e-04 3.03487130e-03 3.90029908e-03
      2.91253217e-02 1.26403887e-02 1.48494765e-02 3.17957439e-02
      3.82093675e-02 2.23911181e-02 2.70216241e-02 4.27133441e-02
      1.17725581e-02 8.81800894e-03 1.39656127e-03 3.56539735e-03</_>
    <_>
      3.15562226e-02 2.70481296e-02 1.19848978e-02 1.74635760e-02
      1.87810808e-02 2.01070309e-02 2.41997167e-02 2.29639951e-02
      2.88996324e-02 1.67201571e-02 6.10485412e-02 7.20605999e-02
      2.24931259e-03 3.84534965e-03 8.88303481e-03 7.18291616e-03
      1.45717874e-01 1.75411582e-01 9.92916450e-02 7.28202984e-02
      1.73632920e-01 2.00121731e-01 2.06868261e-01 1.76405877e-01
      1.00609064e-01 1.72093093e-01 2.49142528e-01 2.49142528e-01
      1.17435623e-02 5.42461015e-02 1.05293140e-01 6.16054721e-02
      9.45444107e-02 7.78054893e-02 1.53280243e-01 1.70780167e-01
      2.49142528e-01 2.27276802e-01 2.49142528e-01 2.49142528e-01
      2.49142528e-01 2.49142528e-01 2.49142528e-01 2.49142528e-01
      5.66135161e-02 1.04626440e-01 6.32803887e-02 1.32729486e-02
      1.01996595e-02 3.59022687e-03 6.00916613e-03 1.28002400e-02
      3.59267555e-02 1.16461432e-02 4.16931175e-02 6.58379942e-02
      6.47095069e-02 3.90988961e-02 3.08434423e-02 5.83543740e-02
      7.80707086e-03 7.82894809e-03 1.47261319e-03 1.43801956e-03</_>
    <_>
      5.73106250e-03 1.17691397e-03 1.06691767e-03 5.70713170e-03
      1.14045776e-02 5.74961910e-03 7.00203609e-03 1.33358501e-02
      1.48077402e-02 8.31038691e-03 7.13113276e-03 1.31224236e-02
      1.72074279e-03 8.36484658e-04 2.19239062e-03 3.16299824e-03
      9.49046835e-02 1.10735826e-01 4.10544015e-02 2.68469844e-02
      2.44361237e-01 2.44361237e-01 1.41821459e-01 1.38044938e-01
      1.63389042e-01 1.66216090e-01 2.44361237e-01 2.44361237e-01
      2.27191411e-02 4.97986004e-02 1.27217039e-01 1.01048864e-01
      5.13330586e-02 9.21267644e-02 1.35607511e-01 9.47045833e-02
      2.44361237e-01 2.44361237e-01 2.44361237e-01 2.44361237e-01
      2.44361237e-01 2.44361237e-01 2.44361237e-01 2.44361237e-01
      9.33375210e-02 1.63458079e-01 1.08851261e-01 3.59713286e-02
      4.37230850e-03 1.85297278e-03 1.76664311e-02 2.03956645e-02
      6.66826814e-02 3.01698167e-02 5.29498979e-02 9.20529068e-02
      1.00997083e-01 5.56281731e-02 5.67459650e-02 1.04090899e-01
      2.95956004e-02 2.75925584e-02 3.18356627e-03 4.99697682e-03</_>
    <_>
      9.07358900e-03 1.27796493e-02 7.45887542e-03 3.76083772e-03
      4.11490463e-02 2.57779490e-02 1.40895694e-02 2.98921037e-02
      1.59551147e-02 1.53802950e-02 2.24688277e-02 2.36276016e-02
      8.74289870e-03 6.57820562e-03 2.01456975e-02 2.26045270e-02
      7.37804845e-02 1.04456380e-01 7.08766207e-02 3.70015465e-02
      2.39350244e-01 2.39350244e-01 2.02811256e-01 1.96923226e-01
      1.38977319e-01 1.75718337e-01 2.39350244e-01 2.07707584e-01
      5.31815104e-02 9.28338468e-02 2.00860649e-01 1.59117997e-01
      2.40878779e-02 5.39463013e-02 1.04193352e-01 7.47024491e-02
      2.39350244e-01 1.93798661e-01 2.39350244e-01 2.39350244e-01
      2.39350244e-01 2.39350244e-01 2.39350244e-01 2.39350244e-01
      1.84271425e-01 1.89619020e-01 6.87198564e-02 5.69290482e-02
      1.79972977e-03 4.99148946e-03 7.03935046e-03 3.83935007e-03
      2.68062726e-02 9.10434499e-03 1.58547964e-02 3.42516974e-02
      4.20366079e-02 2.32807864e-02 3.44299637e-02 5.57610281e-02
      2.46936549e-02 1.68858655e-02 1.83787104e-03 9.15821642e-03</_>
    <_>
      2.54494976e-02 2.00367589e-02 2.65710824e-03 8.35493766e-03
      4.27430868e-02 3.42408419e-02 1.74846537e-02 2.68149991e-02
      3.97390090e-02 2.37816460e-02 5.07116839e-02 6.47229180e-02
      6.02509361e-03 2.54999241e-03 2.13486142e-02 2.47142762e-02
      1.21025130e-01 1.54593825e-01 9.82438922e-02 6.66396394e-02
      2.36882970e-01 2.36882970e-01 1.99063256e-01 1.75154939e-01
      1.72011986e-01 1.86994016e-01 2.36882970e-01 2.36882970e-01
      5.61514087e-02 9.91959423e-02 1.48667693e-01 1.04416169e-01
      4.29560877e-02 4.76491898e-02 1.35952771e-01 1.33928671e-01
      2.36882970e-01 2.36882970e-01 2.36882970e-01 2.36882970e-01
      2.36882970e-01 2.36882970e-01 2.13928849e-01 2.36882970e-01
      1.29642144e-01 1.50107309e-01 4.78840433e-02 2.51937713e-02
      3.06502543e-03 1.05009461e-03 2.76647508e-03 4.74114995e-03
      1.87486354e-02 1.00724334e-02 1.01286583e-02 1.96278859e-02
      3.09167672e-02 1.41354082e-02 1.03420317e-02 2.88928486e-02
      6.49673492e-03 4.76126466e-03 9.15025827e-04 2.97538098e-03</_>
    <_>
      4.52777324e-03 7.10505806e-03 5.39237820e-03 2.43853452e-03
      1.79441776e-02 6.10801764e-03 6.78241532e-03 1.78294666e-02
      1.34075964e-02 1.09420698e-02 6.91833673e-03 9.99884214e-03
      6.36031292e-03 4.16352320e-03 5.25158131e-03 7.64193060e-03
      7.77057409e-02 1.10121839e-01 5.07336445e-02 1.94248799e-02
      2.37949446e-01 2.37949446e-01 1.39843151e-01 1.67776823e-01
      1.48116350e-01 1.79825336e-01 2.26558387e-01 1.95300534e-01
      4.74294461e-02 6.74033836e-02 1.83883905e-01 1.60979390e-01
      3.26915532e-02 8.94043744e-02 1.29741088e-01 7.28761107e-02
      2.37949446e-01 2.37949446e-01 2.37949446e-01 2.37949446e-01
      2.20840320e-01 2.37949446e-01 2.37949446e-01 2.37949446e-01
      1.16346240e-01 1.61093101e-01 1.28769383e-01 8.31892118e-02
      3.46566713e-03 7.62793049e-03 2.15578843e-02 1.75153911e-02
      7.74736404e-02 4.35240194e-02 6.87678382e-02 1.05360173e-01
      9.44003090e-02 4.58539911e-02 8.19295645e-02 1.31028578e-01
      5.24853133e-02 4.37168330e-02 9.81780235e-03 1.85205247e-02</_>
    <_>
      1.23364031e-02 9.63908434e-03 1.83167995e-03 4.57537174e-03
      2.87134051e-02 2.02773008e-02 2.22589783e-02 3.10854651e-02
      2.15323959e-02 1.93552207e-02 2.09284704e-02 2.50163153e-02
      5.34665817e-03 2.62381136e-03 1.01088509e-02 1.32030938e-02
      1.05784729e-01 1.41934469e-01 7.35825151e-02 3.72818373e-02
      2.35647038e-01 2.35647038e-01 1.85195521e-01 1.78583294e-01
      1.30598992e-01 1.34736836e-01 2.35647038e-01 2.35647038e-01
      3.92994024e-02 5.93348965e-02 1.91984579e-01 1.75431818e-01
      3.44019979e-02 6.42487407e-02 1.34232163e-01 1.07810788e-01
      2.35647038e-01 2.35647038e-01 2.35647038e-01 2.35647038e-01
      2.35647038e-01 2.21501529e-01 2.35647038e-01 2.35647038e-01
      1.40940607e-01 1.82151124e-01 9.37073678e-02 5.46102636e-02
      4.51876223e-03 1.29651476e-03 7.26761436e-03 1.02049420e-02
      4.04300094e-02 1.01743406e-02 2.10736766e-02 5.06669767e-02
      6.69499636e-02 3.42069045e-02 4.74492088e-02 7.90578350e-02
      2.90800929e-02 2.34396402e-02 3.86513164e-03 9.23968013e-03</_>
    <_>
      6.30807178e-03 3.34517332e-04 3.09899013e-04 6.28930284e-03
      2.77258381e-02 7.89317861e-03 8.65456928e-03 2.92551536e-02
      3.02465893e-02 9.23501700e-03 1.13930320e-02 3.28460895e-02
      1.55683849e-02 1.47149793e-03 2.11600983e-03 1.63888317e-02
      5.32003343e-02 7.54700080e-02 3.43917646e-02 1.37968417e-02
      2.49674901e-01 2.49674901e-01 1.33121520e-01 1.36071816e-01
      1.35116458e-01 1.65022478e-01 1.79063678e-01 1.54509619e-01
      5.88243417e-02 5.88838384e-02 1.85445175e-01 1.88594863e-01
      2.86841262e-02 6.83659688e-02 1.02313407e-01 6.25239164e-02
      2.49674901e-01 2.49674901e-01 2.49674901e-01 2.49674901e-01
      2.49674901e-01 2.49674901e-01 2.49674901e-01 2.49674901e-01
      1.48475185e-01 1.70881003e-01 1.37347102e-01 1.12615578e-01
      1.46454119e-03 4.63055214e-03 1.30694713e-02 9.62030049e-03
      5.82863539e-02 3.30007039e-02 4.66348194e-02 7.15781152e-02
      7.79847503e-02 3.93288694e-02 7.35794753e-02 1.10355988e-01
      5.24281673e-02 3.79763581e-02 1.39695145e-02 2.77490504e-02</_>
    <_>
      2.14512981e-02 2.04948802e-02 7.07247853e-03 7.82257598e-03
      2.40865275e-02 3.00108436e-02 2.43327059e-02 1.83316190e-02
      3.60388048e-02 2.06984356e-02 5.15015535e-02 6.48066476e-02
      3.34082358e-03 1.24548073e-03 1.63221378e-02 1.81730427e-02
      1.27284750e-01 1.77524731e-01 1.01606809e-01 5.29891849e-02
      2.30910689e-01 2.40009055e-01 2.04019606e-01 1.67850301e-01
      1.50108024e-01 1.81726545e-01 2.40009055e-01 2.40009055e-01
      4.01313081e-02 9.22348574e-02 1.45921662e-01 9.30690691e-02
      4.73401733e-02 4.94566895e-02 1.36352196e-01 1.35456532e-01
      2.40009055e-01 2.26404190e-01 2.40009055e-01 2.40009055e-01
      2.40009055e-01 2.40009055e-01 2.40009055e-01 2.40009055e-01
      1.09534949e-01 1.40420079e-01 4.16033119e-02 1.30739650e-02
      2.98769586e-03 8.53879668e-04 1.59850402e-03 3.75680299e-03
      1.59900505e-02 4.97045880e-03 9.18366574e-03 2.01034024e-02
      2.99847070e-02 1.21274395e-02 1.08796852e-02 2.97948718e-02
      3.39621655e-03 2.83306092e-03 4.30966087e-04 1.50337501e-03</_>
    <_>
      4.87892516e-03 1.22861378e-03 1.13019568e-03 4.76379506e-03
      1.41505925e-02 9.28165857e-03 1.01440521e-02 1.35802599e-02
      1.45289591e-02 1.00235706e-02 8.43110681e-03 1.30313756e-02
      5.28652035e-03 2.54938961e-03 3.45966523e-03 6.17947057e-03
      9.58623812e-02 1.06683105e-01 3.52806970e-02 2.25872863e-02
      2.40064248e-01 2.40064248e-01 1.30819708e-01 1.63420126e-01
      1.43219948e-01 1.26921639e-01 1.79483682e-01 1.92864552e-01
      6.83722720e-02 6.77420944e-02 1.62573501e-01 1.60593718e-01
      5.58820143e-02 9.96065140e-02 1.35491759e-01 9.21723992e-02
      2.40064248e-01 2.40064248e-01 2.40064248e-01 2.40064248e-01
      2.40064248e-01 2.40064248e-01 2.40064248e-01 2.40064248e-01
      1.65551737e-01 2.04162762e-01 1.13982908e-01 7.50311166e-02
      5.95272798e-03 4.38729720e-03 2.05049422e-02 2.21955255e-02
      8.09515789e-02 3.34368087e-02 5.30620739e-02 1.00603282e-01
      9.93660688e-02 4.76077683e-02 7.13703409e-02 1.24382101e-01
      5.08122519e-02 3.97954695e-02 6.52400451e-03 1.64937731e-02</_>
    <_>
      5.55881439e-03 3.20282835e-03 3.01800948e-03 5.23131574e-03
      1.29759992e-02 6.35289075e-03 6.58154348e-03 1.25975339e-02
      2.34820060e-02 7.88234919e-03 1.11773517e-02 2.75343787e-02
      1.24066165e-02 3.59750050e-03 5.03170304e-03 1.39305219e-02
      1.58262283e-01 1.61216065e-01 6.92669228e-02 6.43188059e-02
      1.85740352e-01 1.98754027e-01 1.75217122e-01 1.62387788e-01
      1.41296893e-01 1.43696219e-01 2.46262386e-01 2.46262386e-01
      1.62022151e-02 4.07600626e-02 8.02446529e-02 5.70169911e-02
      1.18367709e-01 1.35919839e-01 1.54523566e-01 1.33232370e-01
      2.46262386e-01 2.46262386e-01 2.46262386e-01 2.46262386e-01
      2.46262386e-01 2.46262386e-01 2.46262386e-01 2.46262386e-01
      5.25662974e-02 1.02621093e-01 8.35517719e-02 3.47670577e-02
      1.58736203e-02 9.94282961e-03 1.92652550e-02 2.53267586e-02
      6.78940415e-02 3.45748514e-02 6.85230568e-02 1.03412479e-01
      1.13839678e-01 7.53319785e-02 3.74748930e-02 7.81137273e-02
      1.58261321e-02 2.61697173e-02 1.39030023e-02 4.26228577e-03</_>
    <_>
      1.75269917e-02 1.20847486e-02 2.89270841e-03 8.47870857e-03
      2.27156989e-02 1.59771144e-02 1.83159094e-02 2.48380080e-02
      2.56304424e-02 1.34741087e-02 2.54536998e-02 3.74346711e-02
      3.54772760e-03 2.18568649e-03 7.96075445e-03 9.97143984e-03
      1.40679449e-01 1.62005603e-01 7.50040710e-02 5.51577881e-02
      2.40197688e-01 2.40197688e-01 1.85680151e-01 1.71461552e-01
      1.18456662e-01 1.39405370e-01 2.40197688e-01 2.40197688e-01
      3.17528509e-02 6.37180656e-02 1.23043016e-01 9.18227211e-02
      5.94610199e-02 7.42083341e-02 1.58540547e-01 1.46071225e-01
      2.40197688e-01 2.40197688e-01 2.40197688e-01 2.40197688e-01
      2.40197688e-01 2.40197688e-01 2.40197688e-01 2.40197688e-01
      9.54184532e-02 1.36795014e-01 7.51546174e-02 3.31066959e-02
      7.60509120e-03 4.29212814e-03 1.42883724e-02 1.75537448e-02
      4.36601788e-02 3.00464723e-02 5.34492545e-02 6.79089203e-02
      8.53544623e-02 4.51309197e-02 3.87665853e-02 8.28829557e-02
      1.78196281e-02 1.61946397e-02 2.80512101e-03 4.99741454e-03</_>
    <_>
      1.33316638e-02 1.22094657e-02 2.57735956e-03 3.24844173e-03
      7.06504956e-02 6.50450289e-02 3.31531651e-02 3.58721502e-02
      2.45569441e-02 2.55348850e-02 3.90079468e-02 3.91894393e-02
      1.55670857e-02 1.15006007e-02 4.22882102e-02 4.66457494e-02
      7.65822306e-02 1.19096771e-01 7.72903860e-02 3.46458815e-02
      2.40219995e-01 2.40219995e-01 2.02829048e-01 1.61541596e-01
      1.42739594e-01 1.66959316e-01 2.39563957e-01 2.13971376e-01
      6.90400079e-02 1.15520589e-01 1.76313281e-01 1.28614306e-01
      1.60793494e-02 4.40489911e-02 1.05988100e-01 7.76019320e-02
      2.40219995e-01 2.36602992e-01 2.40219995e-01 2.40219995e-01
      2.40219995e-01 2.35734537e-01 2.40219995e-01 2.40219995e-01
      1.85522124e-01 1.71272248e-01 4.76166569e-02 6.14560395e-02
      1.18698587e-03 7.48110295e-04 1.56476337e-03 1.99671416e-03
      2.14163661e-02 8.45926534e-03 7.72401784e-03 2.06495672e-02
      2.46640518e-02 1.14291292e-02 1.39448410e-02 2.76744440e-02
      1.13809323e-02 5.80856157e-03 8.58230458e-04 6.08652923e-03</_>
    <_>
      2.83951405e-03 1.85396220e-03 6.43690117e-04 1.72368682e-03
      1.12897949e-02 5.92100900e-03 8.99149850e-03 1.49924709e-02
      6.51720585e-03 3.13248881e-03 4.12268098e-03 7.44023360e-03
      1.21628947e-03 2.80048145e-04 1.11402385e-03 2.00925022e-03
      8.97638574e-02 1.17323294e-01 4.91164550e-02 2.02505887e-02
      2.40001440e-01 2.40001440e-01 1.65966779e-01 1.41588598e-01
      8.99326503e-02 1.26288563e-01 2.40001440e-01 2.40001440e-01
      2.08656602e-02 3.62226330e-02 1.44933894e-01 1.32130742e-01
      3.82390544e-02 9.77425426e-02 1.46673337e-01 8.64686370e-02
      2.40001440e-01 2.40001440e-01 2.40001440e-01 2.40001440e-01
      2.02618346e-01 2.40001440e-01 2.40001440e-01 2.40001440e-01
      7.97202215e-02 1.43885896e-01 1.44896477e-01 8.35992545e-02
      5.14989533e-03 7.28695281e-03 2.55219098e-02 2.29147971e-02
      8.11757892e-02 5.86718433e-02 8.92755613e-02 1.13068566e-01
      1.17905259e-01 6.28668368e-02 1.00712657e-01 1.61774114e-01
      4.87437546e-02 4.23674434e-02 1.00744106e-02 1.75701044e-02</_>
    <_>
      3.30023803e-02 2.50077583e-02 8.13413970e-03 1.54904872e-02
      2.85770595e-02 2.58609727e-02 2.38198340e-02 2.71961708e-02
      5.49547374e-02 3.27044763e-02 8.46183077e-02 1.09640494e-01
      2.25104648e-03 4.37406637e-03 1.49405552e-02 1.29791480e-02
      1.73429340e-01 1.91171676e-01 7.28109330e-02 5.41166477e-02
      1.76847830e-01 2.18107730e-01 2.28804812e-01 1.87120095e-01
      1.40219137e-01 2.31564879e-01 2.43242607e-01 2.43242607e-01
      2.20406838e-02 7.91895092e-02 1.03446417e-01 4.49407324e-02
      1.20211981e-01 1.09549709e-01 1.22573145e-01 1.33071229e-01
      2.43242607e-01 2.27790251e-01 2.43242607e-01 2.43242607e-01
      2.43242607e-01 2.43242607e-01 1.92323849e-01 2.17643395e-01
      5.88545687e-02 8.89967531e-02 4.34187464e-02 1.42079303e-02
      1.68585517e-02 8.78164079e-03 1.19663682e-02 2.04956569e-02
      4.37983088e-02 1.38401166e-02 2.77345031e-02 5.84141649e-02
      5.30511476e-02 2.69318819e-02 1.15859769e-02 3.56432572e-02
      2.29607150e-03 2.23136041e-03 8.63627589e-04 9.09242430e-04</_>
    <_>
      3.63753876e-03 3.08823306e-03 8.15690728e-04 1.58434117e-03
      1.39778014e-02 1.06354235e-02 1.32486448e-02 1.75894424e-02
      1.85776129e-02 1.30855674e-02 1.10190483e-02 1.56734940e-02
      2.93926126e-03 1.60358171e-03 4.68311645e-03 5.85144339e-03
      8.26058239e-02 1.10533513e-01 5.49656712e-02 2.71749590e-02
      2.37765864e-01 2.37765864e-01 1.96488887e-01 1.56577021e-01
      1.33622870e-01 1.60158589e-01 2.37765864e-01 2.37765864e-01
      2.70297918e-02 5.16375750e-02 1.50211051e-01 1.23740464e-01
      3.78332511e-02 8.95280913e-02 1.39932543e-01 8.74524713e-02
      2.37765864e-01 2.37765864e-01 2.37765864e-01 2.37765864e-01
      2.37006739e-01 2.37765864e-01 2.37765864e-01 2.37765864e-01
      9.12147388e-02 1.56637162e-01 1.17318235e-01 5.18987589e-02
      6.34394446e-03 3.58588807e-03 1.92478262e-02 2.11935379e-02
      7.79218450e-02 3.56998779e-02 6.43128902e-02 1.04585879e-01
      1.02406271e-01 6.48220778e-02 8.04190263e-02 1.19016290e-01
      3.51962410e-02 3.34010012e-02 8.16940423e-03 9.78033151e-03</_>
    <_>
      1.91262681e-02 1.69263333e-02 1.01730013e-02 1.27958134e-02
      2.47120876e-02 1.71940792e-02 2.38137916e-02 3.24707739e-02
      2.65406575e-02 1.12175308e-02 4.35326770e-02 5.97704016e-02
      4.88400366e-03 1.37369893e-02 1.60073787e-02 7.02009397e-03
      1.36909947e-01 1.46704018e-01 7.02292994e-02 6.13536276e-02
      1.28042117e-01 1.30285874e-01 2.63535351e-01 2.63535351e-01
      1.59596533e-01 2.03368679e-01 2.63535351e-01 2.63535351e-01
      1.28634768e-02 5.66183254e-02 7.41956085e-02 3.29012126e-02
      1.53967366e-01 1.07894510e-01 1.07880667e-01 1.54303849e-01
      2.63535351e-01 1.88573152e-01 2.63535351e-01 2.63535351e-01
      2.63535351e-01 2.63535351e-01 2.01567724e-01 1.83466271e-01
      3.83529030e-02 6.86304346e-02 4.84004803e-02 1.91248655e-02
      1.54249687e-02 7.40058580e-03 7.07509974e-03 1.49748810e-02
      4.57391962e-02 1.90703180e-02 3.23344506e-02 5.93103655e-02
      5.46175390e-02 3.93352583e-02 1.32532418e-02 2.99692322e-02
      5.79859223e-03 9.44053382e-03 7.81814568e-03 4.13787970e-03</_>
    <_>
      1.21003147e-02 8.10900703e-03 1.42405275e-03 5.48304245e-03
      1.80606321e-02 1.39121441e-02 1.34270983e-02 1.77811310e-02
      2.17080992e-02 1.19391717e-02 1.74407177e-02 2.77791154e-02
      2.79019936e-03 1.39499921e-03 5.75078977e-03 7.21364561e-03
      1.25788391e-01 1.47699356e-01 6.72788993e-02 4.58070189e-02
      2.41705656e-01 2.41705656e-01 1.83141544e-01 1.70793995e-01
      1.50285110e-01 1.51163310e-01 2.41705656e-01 2.41705656e-01
      2.84182392e-02 5.50852753e-02 1.35439694e-01 1.10500284e-01
      4.31748666e-02 6.70208335e-02 1.50942668e-01 1.32831037e-01
      2.41705656e-01 2.41705656e-01 2.41705656e-01 2.41705656e-01
      2.41705656e-01 2.41705656e-01 2.41705656e-01 2.41705656e-01
      9.30588394e-02 1.46392241e-01 9.43021700e-02 4.16475609e-02
      5.28226513e-03 1.65822124e-03 8.45321454e-03 1.29299508e-02
      4.27939668e-02 1.43581722e-02 2.93483976e-02 6.02398217e-02
      6.84550032e-02 2.49360874e-02 2.81679202e-02 7.46236891e-02
      1.94175076e-02 1.64745376e-02 3.76956863e-03 6.51766220e-03</_>
    <_>
      7.35391071e-03 4.20178566e-03 3.43923224e-03 6.96534757e-03
      2.12133899e-02 4.35095560e-03 5.52204484e-03 2.28179954e-02
      3.19448039e-02 6.32001599e-03 1.02446442e-02 3.65209170e-02
      1.33146988e-02 1.67343125e-03 4.42368211e-03 1.59642361e-02
      1.28779173e-01 1.24253877e-01 4.40206826e-02 5.19757196e-02
      1.39682069e-01 1.34005353e-01 1.22011416e-01 1.30605564e-01
      1.48260459e-01 1.23290509e-01 2.39912584e-01 2.39912584e-01
      1.84435807e-02 2.84635555e-02 8.74659717e-02 7.84391314e-02
      1.12965018e-01 1.56568840e-01 1.67567074e-01 1.22393392e-01
      2.39912584e-01 2.39912584e-01 2.39912584e-01 2.39912584e-01
      2.39912584e-01 2.39912584e-01 2.39912584e-01 2.39912584e-01
      7.15456456e-02 1.46006167e-01 1.41969427e-01 6.66255653e-02
      2.22309846e-02 1.26109282e-02 4.20194827e-02 5.09112254e-02
      1.12039730e-01 6.41544610e-02 1.05661951e-01 1.54800341e-01
      1.71590596e-01 1.08974092e-01 7.88811222e-02 1.42685190e-01
      4.11172882e-02 4.26068269e-02 9.10317898e-03 6.68547256e-03</_>
    <_>
      1.42870704e-02 1.51561517e-02 8.25929269e-03 7.38234958e-03
      3.35998014e-02 2.46146247e-02 2.09747087e-02 2.77577657e-02
      1.91824958e-02 1.49228750e-02 1.69670358e-02 1.98530275e-02
      1.07788835e-02 6.77399011e-03 1.26135703e-02 1.65546369e-02
      7.79956952e-02 1.02756023e-01 6.98705539e-02 4.34735641e-02
      2.38334104e-01 2.38334104e-01 2.34841511e-01 1.85991362e-01
      1.56557173e-01 1.69620752e-01 2.37536088e-01 2.24153742e-01
      5.94582707e-02 8.43925029e-02 1.81622744e-01 1.57851517e-01
      1.96767077e-02 5.46414703e-02 9.49340612e-02 6.10750578e-02
      2.31241122e-01 2.16985166e-01 2.38334104e-01 2.38334104e-01
      2.38334104e-01 2.34158456e-01 2.38334104e-01 2.38334104e-01
      1.54748037e-01 1.76724359e-01 9.53379348e-02 7.20469877e-02
      3.17674875e-03 6.89558359e-03 7.21715903e-03 3.64737539e-03
      2.67181043e-02 1.21936677e-02 2.14679539e-02 3.58129926e-02
      4.40180637e-02 2.29140613e-02 3.78153734e-02 6.14519939e-02
      2.92675085e-02 2.18909904e-02 7.00735301e-03 1.46932155e-02</_>
    <_>
      9.07908846e-03 8.56209546e-03 1.34070578e-03 2.03132210e-03
      4.65545170e-02 3.52956951e-02 1.50709059e-02 2.82719992e-02
      2.83372998e-02 2.16305405e-02 3.28671671e-02 3.94917205e-02
      1.07805794e-02 3.94155364e-03 2.41548158e-02 3.06744426e-02
      6.78964928e-02 1.03863150e-01 6.83279485e-02 2.91510224e-02
      2.39890411e-01 2.39890411e-01 1.88994393e-01 1.59613878e-01
      1.61087736e-01 2.02626199e-01 2.39890411e-01 2.22044036e-01
      6.78599328e-02 1.04114577e-01 1.85998932e-01 1.43110886e-01
      1.34930583e-02 3.92302871e-02 9.95247662e-02 7.46698529e-02
      2.39890411e-01 2.39890411e-01 2.39890411e-01 2.39890411e-01
      2.39890411e-01 2.39890411e-01 2.39890411e-01 2.39890411e-01
      1.69758111e-01 1.72581688e-01 6.10455200e-02 5.58436029e-02
      1.44665781e-03 1.25515752e-03 2.33062543e-03 2.55199056e-03
      1.84421204e-02 7.73046678e-03 8.97481572e-03 2.00849604e-02
      2.58619320e-02 1.16648506e-02 1.33293197e-02 2.80731004e-02
      9.50801931e-03 5.64098591e-03 1.24464568e-03 5.19040972e-03</_>
    <_>
      7.87512213e-03 1.62974037e-02 1.47944177e-02 6.67259144e-03
      2.22821049e-02 9.14159883e-03 6.69238716e-03 2.05075238e-02
      2.04870962e-02 6.03125198e-03 4.42751544e-03 1.87755078e-02
      1.03632268e-02 3.66236921e-03 4.84975846e-03 1.13387676e-02
      4.12731394e-02 8.05174038e-02 5.54068238e-02 1.65349375e-02
      2.49076083e-01 2.49076083e-01 1.45807996e-01 1.40719146e-01
      1.74131006e-01 1.74706042e-01 1.71546787e-01 1.71631277e-01
      7.10703656e-02 7.42103681e-02 1.74618021e-01 1.69967353e-01
      2.29280815e-02 7.73429647e-02 9.38149691e-02 4.13417630e-02
      2.49076083e-01 2.49076083e-01 2.49076083e-01 2.49076083e-01
      2.49076083e-01 2.49076083e-01 2.49076083e-01 2.49076083e-01
      1.83995903e-01 2.06020474e-01 1.03695244e-01 8.10569674e-02
      4.00052313e-03 9.29897837e-03 1.27955638e-02 8.16143304e-03
      5.16370349e-02 1.55674284e-02 2.72899903e-02 6.18040375e-02
      6.21378608e-02 3.16098407e-02 4.22234870e-02 7.23911151e-02
      3.26196961e-02 2.23497674e-02 4.54842811e-03 1.45199373e-02</_>
    <_>
      7.44673004e-03 3.38187651e-03 2.54245661e-03 6.71352632e-03
      2.37099268e-02 8.66184663e-03 8.72089341e-03 2.32189223e-02
      2.44826805e-02 1.35491071e-02 9.65536572e-03 2.17295773e-02
      1.07055921e-02 4.86300699e-03 6.21287338e-03 1.23394169e-02
      9.10518616e-02 1.16672844e-01 4.09740172e-02 1.43954260e-02
      2.44133711e-01 2.44133711e-01 1.60422876e-01 1.56237945e-01
      1.49922535e-01 1.72292113e-01 2.23798096e-01 1.98960230e-01
      4.74930778e-02 7.71831498e-02 1.82342380e-01 1.55347630e-01
      3.25558446e-02 8.12342539e-02 1.33229017e-01 8.48396048e-02
      2.44133711e-01 2.44133711e-01 2.44133711e-01 2.44133711e-01
      2.44133711e-01 2.44133711e-01 2.44133711e-01 2.44133711e-01
      1.27187595e-01 1.68742850e-01 1.12408973e-01 7.21802786e-02
      3.52564105e-03 1.61767041e-03 1.00990059e-02 1.25422021e-02
      4.66025174e-02 2.06786972e-02 3.26879583e-02 5.94731569e-02
      6.71135634e-02 3.25083472e-02 4.25994918e-02 7.61972293e-02
      2.83598378e-02 1.97821334e-02 3.89259774e-03 1.27492920e-02</_>
    <_>
      9.27637424e-03 5.16866846e-03 2.33916566e-03 5.56079764e-03
      1.44624626e-02 9.01487842e-03 1.07708341e-02 1.52956322e-02
      2.69287508e-02 1.72209237e-02 1.57712586e-02 2.59014163e-02
      2.95190769e-03 1.37387321e-03 6.36302587e-03 8.00284278e-03
      1.38240963e-01 1.65515348e-01 6.92907795e-02 4.14337963e-02
      2.14455500e-01 2.35954389e-01 1.74306765e-01 1.44790798e-01
      1.43025696e-01 1.48111820e-01 2.35954389e-01 2.35954389e-01
      2.82805040e-02 6.03299029e-02 1.41529962e-01 1.12236954e-01
      5.62731922e-02 9.66292247e-02 1.68591931e-01 1.28034294e-01
      2.35954389e-01 2.35954389e-01 2.35954389e-01 2.35954389e-01
      2.35954389e-01 2.35954389e-01 2.35954389e-01 2.35954389e-01
      1.01046257e-01 1.65387481e-01 1.00489676e-01 3.71745713e-02
      9.61473864e-03 3.02920211e-03 1.82007756e-02 2.40638070e-02
      7.42019713e-02 2.99634542e-02 5.12973852e-02 9.28773955e-02
      1.06953628e-01 4.60951626e-02 4.36143577e-02 1.02343634e-01
      2.84216888e-02 2.66893394e-02 4.28218814e-03 6.17573550e-03</_>
    <_>
      5.06434124e-03 9.98252351e-03 6.92934822e-03 2.11851927e-03
      3.92594710e-02 2.89706215e-02 1.62019357e-02 2.64300331e-02
      1.61707569e-02 1.33415069e-02 1.92448832e-02 2.14455146e-02
      1.15069132e-02 6.56044856e-03 2.10124161e-02 2.60140505e-02
      3.74560393e-02 7.34286383e-02 5.47711663e-02 1.84619334e-02
      2.43817598e-01 2.43817598e-01 1.98669091e-01 1.57528698e-01
      1.76953018e-01 2.20702469e-01 2.31654555e-01 1.84204206e-01
      5.42055033e-02 8.39840099e-02 1.91312224e-01 1.60955921e-01
      1.42797381e-02 5.34807742e-02 7.70294368e-02 3.80054452e-02
      2.43699148e-01 2.24794522e-01 2.43817598e-01 2.43817598e-01
      2.43817598e-01 2.43817598e-01 2.43817598e-01 2.43817598e-01
      1.83346301e-01 1.76782131e-01 7.20141605e-02 7.53699094e-02
      3.45743215e-03 1.29831089e-02 1.35622704e-02 3.99849657e-03
      1.90861002e-02 9.65298619e-03 1.66214239e-02 2.56764833e-02
      3.10659874e-02 1.58450324e-02 2.14775559e-02 3.62520143e-02
      1.76170934e-02 9.26593132e-03 2.21859780e-03 1.01803830e-02</_>
    <_>
      7.93712121e-03 4.32731165e-03 2.32509128e-03 5.91070484e-03
      1.23564787e-02 6.75187446e-03 1.15059195e-02 1.68924946e-02
      2.41550896e-02 1.55422753e-02 1.40542053e-02 2.18566339e-02
      4.83077578e-03 1.86070125e-03 7.56926229e-03 1.04290890e-02
      1.32187486e-01 1.45400211e-01 6.56226426e-02 5.35500497e-02
      2.35027224e-01 2.35027224e-01 1.67477936e-01 1.77706212e-01
      1.65282756e-01 1.53540343e-01 2.35027224e-01 2.35027224e-01
      4.95158695e-02 7.27474988e-02 1.64058551e-01 1.41338542e-01
      6.87468573e-02 7.64234960e-02 1.46958873e-01 1.39673084e-01
      2.35027224e-01 2.35027224e-01 2.32566357e-01 2.35027224e-01
      2.35027224e-01 2.35027224e-01 2.35027224e-01 2.35027224e-01
      1.43313542e-01 1.67762548e-01 7.86144957e-02 5.24052605e-02
      7.15071382e-03 1.13313855e-03 8.35513975e-03 1.44672487e-02
      4.64767478e-02 2.03900449e-02 1.87849272e-02 4.39245589e-02
      5.60769252e-02 2.68405657e-02 2.56650429e-02 5.44617549e-02
      1.89175103e-02 1.43577056e-02 1.74777710e-03 6.55303895e-03</_>
    <_>
      6.91052992e-03 1.54475053e-03 1.44695339e-03 6.85495744e-03
      1.71300787e-02 5.06669655e-03 5.83860697e-03 1.80103239e-02
      2.32975222e-02 9.10168514e-03 7.77132204e-03 2.15596762e-02
      7.50386622e-03 3.70533764e-03 3.73451994e-03 7.28969742e-03
      1.31003544e-01 1.40324235e-01 5.50006442e-02 4.70225438e-02
      1.90386355e-01 1.84496358e-01 1.30344808e-01 1.43789202e-01
      1.74141824e-01 1.38857171e-01 2.34762669e-01 2.34762669e-01
      2.23234296e-02 3.74940746e-02 1.18656538e-01 1.03944875e-01
      8.74224082e-02 1.37833044e-01 1.72302783e-01 1.21792808e-01
      2.34762669e-01 2.34762669e-01 2.34762669e-01 2.34762669e-01
      2.34762669e-01 2.34762669e-01 2.34762669e-01 2.34762669e-01
      8.85483623e-02 1.50309190e-01 1.26685739e-01 6.45349026e-02
      1.67266745e-02 7.23222643e-03 3.74596938e-02 4.69357483e-02
      1.09907635e-01 5.29802181e-02 8.41184929e-02 1.37986898e-01
      1.40853718e-01 6.92674965e-02 6.88591674e-02 1.39660627e-01
      3.35400924e-02 3.34340408e-02 8.43573827e-03 8.33268184e-03</_>
    <_>
      6.59463112e-05 4.62977914e-03 4.62028291e-03 5.69176009e-05
      3.60872154e-03 2.09849188e-03 1.97561923e-03 3.18437093e-03
      4.36577573e-03 2.97037512e-03 2.53145490e-03 3.77911213e-03
      5.01695741e-03 1.52195466e-03 1.60584727e-03 4.81309555e-03
      5.84455878e-02 8.93083587e-02 4.02965471e-02 7.44587462e-03
      2.41433844e-01 2.41433844e-01 1.73322424e-01 1.37767673e-01
      1.27312943e-01 1.45429507e-01 1.95503175e-01 1.75471544e-01
      3.94703746e-02 5.48144095e-02 1.53732523e-01 1.35767251e-01
      3.81989963e-02 1.09813564e-01 1.19436905e-01 4.96354587e-02
      2.41433844e-01 2.41433844e-01 2.41433844e-01 2.41433844e-01
      2.41433844e-01 2.41433844e-01 2.41433844e-01 2.41433844e-01
